1052 300
salt -0.014547249 -0.021987833 -0.0020142766 0.105208315 -0.044387273 0.028827514 -0.019744888 -0.010509543 -0.056674644 0.0052286345 0.0003329575 0.041207675 0.0028539978 -0.065829426 -0.028451527 0.019059023 0.07098375 0.033883244 0.06279706 -0.11465971 0.077323504 0.06305599 0.05428744 0.10965172 0.09985294 -0.08910032 -0.04935367 0.065548584 0.0043730005 0.041124817 -0.08008805 0.01960109 0.048972223 0.0452168 0.028465625 -0.057562213 0.06913091 0.01902704 -0.00030128518 -0.0776062 -0.0042518224 0.075844735 -0.011086512 -0.007375085 0.14930987 -0.062653795 0.07106714 0.045860074 0.017866125 -0.065601766 0.11659301 -0.05155929 0.07471765 0.020093367 0.047146372 -0.0026434427 0.027863884 -0.010033594 -0.01712801 -0.07946703 -0.101098046 0.003908684 -0.009981794 -0.0019301152 -0.0778357 -0.068029374 0.014736093 0.0731626 0.028762605 0.12207705 -0.09053969 -0.043191023 0.10186504 0.040147644 -0.019025616 -0.03976725 0.03589918 0.01606734 0.12608449 0.094103344 0.03784582 0.0071941623 -0.06041562 -0.05986579 -0.045331202 0.0831742 -0.021982523 -0.023666935 -0.06947588 0.022040952 0.089536734 -0.00030339402 0.002142327 -0.042574298 -0.021469941 0.06841172 0.039568834 -0.017767655 0.02017675 0.08086577 -0.052680492 -0.1026913 -0.011665842 0.060948983 0.0018672391 -0.005317584 0.034059346 -0.027716627 -0.041527517 -0.03326114 0.023775527 -0.023916265 -0.03370104 -0.05742667 0.00264855 0.07647289 0.115223795 0.026707087 -0.0004702775 0.08874179 -0.15431124 0.059462458 -0.110034354 0.0576411 0.030387701 -0.06716152 -0.10467876 -0.057678603 0.04542461 0.0371673 -0.0035823903 0.006095425 0.024217078 0.043732964 -0.083339095 0.08033502 -0.04449008 -0.0023697114 -0.031585515 -0.010903369 0.0014933711 -0.07609827 -0.00905176 -0.047344558 -0.019291308 0.058626436 -0.08570095 -0.03526684 0.047720734 -0.020043189 0.060967032 0.032871213 -0.07638026 0.021602735 0.065338865 -0.0019891493 0.005177324 -0.029034475 0.07724152 0.0027059452 0.0028846487 -0.075524256 0.02110504 0.06614267 0.053435113 -0.10647675 0.012151951 -0.044143163 -0.023082197 0.024919473 -0.019040879 0.04609169 0.017084554 -0.009415761 -0.097837314 -0.077262245 0.038447224 -0.077510454 0.013217131 0.01568665 0.014216722 0.029906161 0.0316453 0.024060424 0.028222594 0.02434111 0.0047822287 0.04428808 -0.096583165 0.11070912 -0.015132339 -0.046150725 0.041220203 -0.07577497 -0.040596295 -0.043361504 -0.050472885 0.07002684 -0.030730313 -0.0064063002 0.0834532 0.03058752 0.00021286224 -0.07670821 -0.016401215 0.078254245 0.07852903 -0.074078575 0.044402774 -0.015615488 0.06016604 0.017054938 -0.0757107 0.065927036 -0.0005928273 -0.09009226 0.016858663 -0.05851381 -0.0051866123 0.09712259 0.034023803 -0.030436523 -0.052308656 0.037506334 -0.04962446 -0.016017683 -0.003515399 0.058959626 -0.090137295 -0.075928435 0.024368787 -0.08441573 0.014899551 0.10327289 -0.0034778821 -0.0185872 -0.0072362986 0.033201013 0.015516581 0.004100487 -0.018060833 -0.008220256 -0.083999544 -0.033106282 0.058096003 -0.03707022 -0.012313636 -0.079605736 0.001936114 -0.11635875 -0.07304254 -0.06890792 -0.018086985 0.021755626 0.06051485 0.066883676 -0.079765365 -0.031369604 0.100574665 0.10213397 0.0637738 0.02427133 0.0011243229 0.026101228 0.0038939712 0.063504234 0.08403873 -0.042582262 -0.042264402 0.025340198 0.0315389 0.11082001 -0.030976115 0.02409475 0.030382104 -0.059212927 0.11832372 -0.024675505 -0.070813745 -0.031959042 -0.09222781 -0.012312819 -0.028425856 0.08099545 -0.11114408 -0.030198531 -0.025037013 -0.09643394 -0.14642014 -0.0387018 0.12075646 0.0061033503 0.08626648 -0.10824832 0.05537253 -0.027362324 0.0076514455 0.016178532 0.019028349 -0.10203603
onion -0.061045736 -0.051090036 0.08956201 0.04961837 -0.018708885 -0.035983533 -0.09928922 0.014894293 -0.010898019 0.009871837 -0.033812113 0.056648515 0.034881424 -0.011188814 -0.0115628475 -0.03092835 0.011743226 0.006311995 -0.05458002 0.0077329427 -0.060683914 0.021795101 -0.0055840844 0.019316187 0.0074095926 -0.005449803 -0.036541585 0.08525973 -0.029489225 0.014068364 -0.07127409 -0.034768786 -0.011125936 -0.05058156 0.18181105 -0.06280062 0.049938455 0.07032682 -0.08097665 -0.052652095 0.10997145 0.0013057279 0.021476632 0.023062412 0.09626305 -0.034809623 0.01733444 0.07537402 0.097217426 0.1299462 -0.010545742 0.009426929 0.04437755 0.04622704 0.068566225 -0.02308296 -0.04957787 -0.07262278 0.06622858 0.07558417 -0.13548149 -0.047304194 -0.08282604 0.03063798 -0.11839483 -0.031234667 0.1320293 0.037955757 0.071834594 -0.010754523 0.058686785 0.013593671 -0.040363956 -0.02332198 -0.047148872 0.11866252 -0.07266777 0.0066046105 0.015516766 -0.05308202 0.009924582 0.028621646 0.04812791 -0.0033579809 -0.0937866 0.02263849 0.07465006 0.0501714 0.0053961156 -0.042182013 -0.07989242 0.0034180786 0.036402497 -0.033501856 0.04602119 -0.0070138443 0.029952936 -0.007652997 -0.08453514 0.023952616 -0.033831958 0.033850502 0.07550498 0.030195044 0.040964514 -0.04027036 -0.061724424 0.058237366 0.0049813706 0.024583422 0.042971577 0.047444765 -0.085111275 -0.0042202054 0.035189833 0.064173736 0.00016880702 0.009007179 0.05018847 -0.037516467 0.039564505 0.008038799 -0.037389457 -0.015044994 0.0015911832 0.03381711 0.04729201 0.06888822 -0.04091393 0.0076933606 -0.0928645 -0.0008041849 0.026803445 0.008124729 0.0028195586 0.020826085 0.00307622 0.016620088 -0.048434146 -0.057846725 -0.02725644 0.076847844 -0.02645307 -0.027162872 -0.035642456 -0.035693664 0.04168045 0.1414612 0.004808112 -0.05667879 -0.033798017 0.020636233 -0.048080474 -0.002560734 0.022638086 -0.07243279 -0.0751134 0.03752452 -0.011343943 0.08670108 0.025305962 -0.059123993 -0.013063896 -0.05887966 -0.022592492 -0.056756582 0.10934078 -0.029375827 -0.10663629 0.06858763 -0.031929463 -0.059631847 0.029411146 -0.009998465 -0.050724298 -0.0032129982 0.03679045 0.056711096 -0.05193742 -0.04749168 -0.08222939 -0.050296478 0.09053034 0.08322577 0.12587617 0.054803055 -0.10006128 0.12981501 -0.002436662 -0.0025339772 0.010144753 0.054364838 0.05592841 0.020784955 0.07835077 -0.038007326 -0.19712262 0.08277583 -0.09396969 0.012934863 0.011317424 0.044810146 -0.023249423 0.0020667405 0.02840163 0.015071191 0.013624702 -0.062310386 -0.087010145 0.026782073 -0.022393033 0.038438004 -0.07343913 0.0075004064 -0.02599622 -0.06747354 -0.041184567 -0.07936996 0.044780202 0.04738639 -0.14837544 -0.0011712746 -0.037289407 0.0168357 -0.12397405 0.045675393 0.09436783 0.11567291 -0.036499426 0.06636439 -0.05335693 -0.033054665 -0.07424541 -0.00733674 -0.033634353 -0.05838002 0.06856136 0.025522858 -0.017076308 0.036967687 0.07055025 0.026377609 -0.050918233 0.052217122 -0.03804123 0.037069287 -0.031155251 -0.0247616 -0.14461164 0.031081164 0.013483162 -0.023311742 -0.09852403 0.046920966 0.0052346247 -0.027379049 0.075370245 -0.05649891 0.006478752 -0.017267305 0.08612923 -0.009878655 0.00770269 0.0011785737 0.04757707 0.026923398 0.06517356 0.07165025 -0.06530005 -0.026172088 -0.08570619 -0.087196566 0.08794911 0.048332244 -0.049055956 -0.0020124044 -0.087967746 0.0049384134 -0.070812486 -0.044998392 0.085433915 0.069103554 0.007130408 -0.023677122 -0.044822395 0.12312152 0.0057839076 0.054359123 -0.06958252 -0.042869996 -0.019640267 -0.021866374 -0.08464932 -0.023474857 -0.09860454 0.022799574 0.020537185 -0.0997476 -0.024400294 0.08047925
garlic 0.23414323 0.08568267 -0.03635895 -0.0096937055 -0.08267913 0.038093932 0.10344374 -0.16304174 0.13768598 0.06814085 -0.03512776 -0.13412488 -0.1253668 0.011498288 0.05045672 0.15073478 -0.059585586 0.03650741 -0.048335098 0.031166023 0.08423014 -0.012418808 0.02305974 -0.011899259 -0.14365171 0.041941755 0.07184864 -0.018000208 0.06858987 0.08831229 0.105676405 0.029971335 -0.015540782 0.018701341 -0.05316125 0.021219937 -0.030783005 -0.071121804 0.04863397 0.020231377 0.05093706 -0.043389462 0.10289835 0.100217625 -0.08166165 0.05765551 -0.016963633 -0.01712039 0.0031904597 0.03134813 0.043666 0.041977968 -0.010372626 -0.037490513 -0.12960452 -0.024466023 0.035606198 0.0742162 -0.05874097 -0.033499584 -0.039422724 0.08117822 -0.013905018 -0.034893706 0.047613263 0.01975244 -0.071372785 -0.07430766 0.010364158 0.09945746 -0.013459448 0.0032648959 0.0010395398 0.03184861 -0.0537661 0.016587993 0.0036187111 0.114226274 0.027915789 -0.0028882755 0.002893109 -0.033471957 -0.031560913 0.04099713 -0.064484306 -0.05828717 -0.0077356384 0.037587885 0.0134484405 0.13324836 0.0049668304 0.092100665 0.034134276 0.09229369 -0.033406552 0.004700516 -0.019340288 0.048357654 0.0818741 0.0747159 -0.091678396 -0.02361452 0.028588176 -0.07253008 0.009627878 0.013911308 -0.0061280224 0.038831893 0.033858377 0.0380793 -0.029219147 -0.011328849 0.09145753 -0.0032807344 -0.047568005 -0.044196576 -0.008035022 0.008029306 -0.040157966 -0.03406422 -0.054688524 0.08108182 0.030344412 -0.013577309 0.017333198 0.033203594 0.016387831 -0.033114858 0.055984892 0.0075088684 -0.0035529742 -0.0142403245 -0.08199861 -0.063058555 0.010891107 0.0043344325 0.037164085 0.010598253 0.02482323 -0.09230102 -0.021590527 -0.06718079 0.0017521676 -0.010495309 0.010556392 0.05800999 0.0010220524 0.057587497 -0.059156697 -0.053352688 0.051153056 -0.0036128757 0.04532595 -0.045549273 -0.09028769 0.09791395 0.15697677 -0.106825225 0.06004426 -0.054127496 -0.02306833 0.011159198 -0.016353087 0.05105217 0.007746844 0.05468166 -0.057777625 0.018182162 0.052826997 -0.054047585 -0.004334141 0.04697707 0.06289316 0.086292334 0.058395598 0.056111533 0.022512954 -0.014874007 0.024596207 -0.015029043 0.06698666 -0.04025047 -0.0037454413 -0.0922544 0.029710168 0.011387433 0.015311668 -0.0913791 0.085836746 -0.04113313 0.06296288 0.036988858 0.12482602 0.004467927 -0.06240236 -0.044257246 -0.019408548 0.012788497 -0.047858436 0.10973699 0.028362237 0.014966626 -0.06584104 0.03335835 0.007476852 -0.095222905 0.02725843 0.07477392 0.049668584 0.04523173 0.06800574 -0.03142558 0.010809803 -0.01240876 0.02317129 0.011957339 -0.036231104 0.010317606 -0.02686527 0.088350326 0.07956115 -0.07494804 0.014751222 0.062459476 0.07762292 -0.05474128 -0.122560404 -0.029845482 -0.028518181 0.025422107 -0.005007395 0.08865122 0.025794344 -0.063102745 -0.009991846 0.005237855 -0.019159108 0.06503834 0.04442553 0.0329803 0.020606615 0.09587514 -0.033457212 -0.045295753 0.068397775 0.014990979 0.03970738 0.05386811 0.0007027924 0.032232966 -0.069614016 0.021511756 0.057429954 -0.06708164 0.015345019 -0.032290075 -0.09125045 0.07360264 -0.049709663 0.04515128 -0.03294999 -0.004379614 0.03486618 0.0067669116 0.018763056 0.042421225 -0.053296596 -0.043942433 0.10028827 -0.020466069 0.04192252 0.02219649 -0.024431892 -0.018799866 0.021065472 0.00044732576 0.071437135 0.0006836634 0.052143347 -0.022462 0.05156045 0.05261897 0.051267136 -0.026465438 0.07344539 0.033196595 0.021638915 -0.10253637 0.06969265 -0.008028007 -0.04175055 -0.0049324664 0.11269125 -0.008128893 0.05051555 -0.049617987 -0.056032546 0.11189492 0.066096425 -0.051693343
pepper -0.047552194 0.030872408 -0.10889727 -0.08254439 0.017001357 -0.049743563 0.01662947 0.038979515 0.060824044 -0.038766194 -0.00065193715 0.027545331 0.011717297 0.00580794 0.08119732 -0.06158365 -0.04027766 0.0070610507 0.016562173 0.09104157 -0.07930627 -0.10713139 -0.0035185756 -0.0884422 -0.02416791 0.090859205 0.0032787586 -0.07928471 -0.092792764 -0.053277656 0.07892173 0.044145055 -0.096013114 0.062184636 -0.07127804 0.094609626 -0.023620024 -0.027050465 0.040674966 0.044988148 -0.05980459 -0.08817391 -0.0069871796 -0.051874753 -0.05645124 0.0085194 -0.13438681 -0.10163597 -0.021577816 -0.009632555 -0.042852882 0.023349678 0.06117657 -0.034403723 0.02697021 0.13689594 -0.07118093 -0.03157067 -0.00071724394 0.03807417 0.040972997 0.03770484 0.029411657 -0.012814029 0.016412443 0.044104733 0.09248275 -0.043050744 0.02030929 -0.093734354 0.09037581 -0.012286362 -0.04358925 -0.036678668 0.032886557 0.06361919 -0.037102323 -0.02827559 -0.14937826 -0.08781419 0.036322344 0.005591066 0.086304575 -0.029649964 0.0409264 -0.015933635 0.028095683 0.007908225 0.05694207 -0.059986673 -0.06325002 -0.040668838 0.0021158718 0.060980238 0.031350445 -0.06575098 -0.041558925 -0.06916081 -0.01800184 -0.09528234 0.05908181 0.034272578 0.030807883 -0.05762596 -0.09562037 0.033590045 -0.010386788 -0.06922802 0.017300753 0.054638587 0.06925712 0.017287148 0.0027647587 0.030630315 -0.0009272891 -0.028447246 -0.07141358 -0.029548446 -0.014685918 -0.0182398 0.111758426 -0.022973796 0.08727111 -0.022452163 -0.0030805552 0.05758108 0.046896275 0.07444432 -0.0222181 -0.008790733 -0.036229797 0.00897348 0.030576127 0.012081378 0.03896449 -0.061877333 -0.00883628 0.08383211 0.016386189 0.052247763 0.012464513 0.03631357 0.112848885 -0.017525015 0.04070103 -0.046716098 -0.1729542 -0.052567586 0.0075597176 -0.053578258 -0.06575719 0.0123574985 0.08725878 0.06385587 0.01615801 -0.0034946355 -0.07650836 0.050075196 -0.07831442 0.08299158 -0.033122897 -0.022113632 0.03155957 -0.004738152 0.018346926 0.055027172 0.06400535 0.038419276 -0.05088915 -0.022269031 0.055565648 -0.04145919 0.0039735558 -0.050812196 0.057552025 0.09054241 -0.00968561 0.14186525 -0.06913982 0.0008368176 -0.027051928 -0.07044829 -0.07828487 0.048537053 -0.023519881 0.054873176 -0.074098885 0.01051848 0.039966933 -0.060745116 -0.031774517 0.00551118 0.04842102 0.060579475 0.00857731 0.032935977 -0.018280834 -0.08862495 0.046746645 -0.0485704 -0.06872291 -0.059682272 -0.051210694 0.067209296 0.058510974 -0.1689614 -0.04985642 0.07960925 0.07035407 0.023954902 -0.049711023 0.036015652 0.15164426 -0.012337378 0.006731688 0.020776758 -0.01616125 -0.014050489 0.08997701 -0.06708937 -0.08515792 0.042591643 -0.028075274 -0.03918396 -0.025688753 0.08988512 0.0047103213 0.024625806 0.045843598 -0.013197672 -0.027954586 0.09864395 -0.016988635 -0.027405059 0.051906727 0.010855516 -0.036906704 -0.01731381 0.0052241255 0.0062639117 0.00085916114 -0.0013616147 0.0801216 0.08561143 0.011323397 0.03768518 -0.0118692145 0.045604967 0.0080790855 0.16102809 0.06950133 -0.03231011 0.089561515 -0.04806067 -0.057430897 -0.04070987 0.015048754 0.03688536 -0.0486076 -0.12817264 -0.064024344 -0.09612203 0.034031507 0.0097789215 -0.022724276 -0.021076273 -0.004858899 -0.0060582496 0.018793918 -0.015310842 0.08524348 -0.053548362 -0.05805218 -0.04153895 -0.035825867 0.02741858 -0.018742597 0.040427644 0.0018341988 0.049400155 0.01851163 0.045444258 0.018188147 -0.049684417 0.10151033 0.051979605 0.11850642 -0.0125390105 0.07791334 0.12278158 -0.13177718 -0.047282014 -0.045571618 0.09826626 -0.054454092 0.0021677364 0.046779808 0.044047773 0.0047161407 0.037075914
butter -0.121810935 -0.020153323 -0.0051988782 -0.045656353 0.047673985 -0.01798858 -0.08388831 0.052973174 0.03417918 -0.10368016 -0.0029335937 0.096941456 0.056130692 -0.0077383323 -0.09458302 -0.055731904 0.017724212 -0.084918715 -0.07343213 0.10214556 0.011927725 0.020517824 0.013088351 -0.035690054 0.013623458 0.0066917376 -0.030783786 -0.04165904 -0.028236764 0.015151443 0.088784076 -0.032625217 -0.006040039 -0.074203506 -0.005796292 -0.024294406 -0.05497856 0.068044916 -0.034107 0.04273117 -0.088489294 0.009379344 0.019945363 -0.08164964 -0.07072989 0.033073995 0.0066506946 0.066703126 -0.084012724 -0.06278072 0.008379698 -0.08430277 0.05782919 0.034883022 0.024899771 0.008071976 0.04265562 0.06339821 0.041433237 0.052949537 0.18594126 0.049854085 0.045427397 -0.047425613 0.07834701 0.13150893 0.012645169 -0.008265794 -0.093295515 -0.014513684 -0.02118527 0.030035133 -0.09237974 -0.055468913 -0.012247559 0.008639314 0.021867005 -0.048277568 -0.052323386 -0.007110933 -0.0009506006 0.0171737 -0.012411048 -0.05371681 0.1219825 0.03209232 -0.05502644 -0.026561081 0.026566984 -0.056305073 0.09400461 -0.047879722 0.0039001838 -0.08457464 -0.055144336 0.038353845 -0.07470261 -0.013892536 -0.0852887 0.038133908 -0.024062973 -0.04212771 -0.04804275 -0.07208263 0.103108965 0.004842832 0.15461211 -0.07718394 0.057032034 -0.038943063 0.16072017 0.06416871 -0.013648911 -0.06527605 0.006097279 -0.045035627 -0.014528987 -0.0071048145 -0.04369225 0.026248759 0.0018808055 0.05071959 0.13562632 -0.12400802 -0.0028134994 -0.020812973 -0.1442151 0.10767153 0.012888382 -0.017762423 0.015546432 0.046643056 0.08724414 0.011834236 -0.083837755 -0.042157676 0.091483615 -0.0031997846 0.034175485 0.07581652 -0.033757415 0.07673222 0.07675332 0.01879106 -0.01157304 -0.00485034 -0.09186257 -0.04605532 0.054416098 0.09748985 0.05925708 0.015325599 -0.0046883626 0.025457036 0.017514363 -0.00846531 0.023594929 -0.13397494 0.052949037 0.052133214 -0.015960613 0.026455505 -0.01911894 0.06659739 -0.022552555 0.06339859 -0.03760026 -0.07425493 0.10023247 -0.056118436 -0.033129912 -0.0032587931 -0.11601492 -0.010254771 0.05673605 0.010441951 0.025231777 -0.0650612 -0.039980385 0.06322094 0.070943825 0.108455755 -0.03818325 0.015510591 -0.18842898 -0.04372629 -0.0033217124 -0.0023122604 0.02731435 -0.011107944 0.12299741 0.04073358 -0.07482134 0.03849515 0.019698089 -0.035397038 -0.02424021 -0.053404182 0.06724949 -0.03926396 -0.051372316 0.04147394 0.07035581 0.046603613 -0.063405715 -0.01355411 -0.014847306 0.043371804 -0.017057724 0.036263525 0.057311352 -0.0484369 0.062142234 0.05778478 -0.034324426 -0.05172815 -0.00042320107 0.08179752 -0.077136286 -0.010410003 -0.008480855 0.005097539 0.024644054 -0.08708776 -0.046274517 0.09406775 0.031073708 0.058340847 0.04828561 -0.0011027936 -0.038937792 -0.042799737 -0.018647015 0.041449327 0.044322036 -0.023718525 -0.106571704 -0.029586777 0.057479832 -0.061918337 0.022594284 -0.059229 0.059419606 0.04738461 0.03129005 -0.047441285 0.05544169 0.002446355 0.051594123 -0.07822767 0.0027197215 -0.035248116 0.011268335 0.10528091 0.07527305 -0.00094586174 -0.035421576 0.08155054 0.024322705 -0.06529378 -0.08040508 -0.003732186 0.012054262 -0.00606269 -0.029212892 -0.012830255 0.013545439 -0.025858259 0.0074464795 -0.06266847 -0.0097858375 -0.01679961 -0.01054618 -0.063403755 0.026043732 0.03715298 0.015785234 0.06805923 0.027643144 0.13234007 -0.022249172 0.0077128606 -0.08298908 -0.016229441 0.04360484 0.031467125 0.052025773 -0.008307508 -0.046678293 0.09503467 -0.022641433 -0.057387926 0.06455269 -0.02750519 0.048850004 -0.056387603 0.06294208 -0.027151212 0.06504739 0.0031486456
black pepper -0.016768819 0.018506331 -0.11311343 -0.05061422 0.020778568 -0.09691071 0.007632617 -0.009548143 0.04374297 0.029367737 -0.015818048 0.025110055 0.008066457 0.052897584 0.08121531 -0.024614858 -0.044661216 -0.021350428 0.019214312 0.07876797 -0.084520966 -0.026052378 0.0038194307 0.025096474 0.05575754 0.040476203 -0.07097918 -0.053002935 -0.06839145 -0.078857645 0.055896685 0.047343623 -0.08593282 0.07304818 -0.11206159 0.11657679 -0.058031265 -0.0769875 0.03258331 0.03444847 -0.06661497 0.00808958 0.02592015 -0.07371481 -0.0036139186 0.00881286 -0.082226776 -0.08412985 -0.049239665 -0.026799148 -0.04985826 0.04118713 -0.033871397 -0.049872737 0.029965654 0.05740801 -0.031353377 -0.023548007 0.005311138 -0.0036034666 0.05229468 0.0055698017 0.035259046 -0.026680559 0.005199154 0.020369899 0.09939231 -0.053453702 0.03953728 -0.089320846 0.08276779 0.041607227 -0.09402348 -0.011485291 0.020687902 0.041020405 -0.010172273 0.031127648 -0.10872598 -0.0949144 -0.013200447 0.02171472 0.009516535 0.030794188 0.0275183 -0.0072783343 0.0023313914 0.00017314707 0.0019569541 -0.117353365 -0.021770563 -0.07426483 0.014644165 0.012551685 -0.048280675 -0.076196305 -0.06587286 -0.025042964 0.05588541 -0.11640185 0.13798587 0.10771656 0.051430695 -0.072149955 -0.07690736 0.0075430004 -0.047455367 0.025123406 0.056041766 0.029326402 0.079478234 0.040948614 -0.0026729426 0.08058435 -0.02967004 -0.04803112 -0.03206457 -0.053593308 -0.038855772 -0.004684297 0.14431165 -0.052005712 0.113994315 0.006382834 0.0725127 0.08996432 0.04727795 0.06589187 -0.03016935 -0.037637286 0.007614835 -0.0029946233 -0.018185435 0.041645013 0.018859362 -0.03506152 -0.0035388458 0.062099196 -0.0046304404 0.047449842 0.038632818 0.012412973 0.10772645 -0.027686076 0.034675118 -0.06587898 -0.18237379 -0.0089329425 0.051734358 -0.024570026 -0.035731968 -0.0011305761 0.06616129 -0.0135038495 -0.0010259454 -0.02150754 -0.036979884 0.046048768 -0.080113836 0.07624695 -0.10811179 0.03132928 0.052752674 -0.022643795 0.013013905 0.11735519 -0.0015614697 0.010833 -0.055014856 -0.07277995 0.05789247 -0.014079421 0.0060314112 -0.023252092 0.084759764 0.06711078 -0.0058328337 0.086807266 -0.0073897634 -0.010568983 -0.023932502 -0.03988811 -0.06819642 0.039792996 -0.015126438 0.047745053 -0.02696023 -0.07694134 0.06358333 -0.13675646 0.011733403 -0.032556992 0.04273895 0.041893825 -0.0038826463 0.01508217 0.045770686 -0.116290316 0.06487059 -0.07103368 -0.021364665 -0.06626466 -0.036994204 0.030419504 0.032333206 -0.15749526 -0.04808167 0.03822856 0.048716348 -0.047956247 -0.10242281 0.001322974 0.11982764 -0.104521275 -0.044960458 0.080501534 -0.025459949 -0.035727922 0.050110333 -0.11572755 -0.067463994 0.06363022 -0.004344587 -0.079500794 -0.038149122 0.067103155 0.09112359 0.005499355 0.06051006 -0.0072709084 -0.04934379 0.049522635 -0.008103969 -0.020076992 -0.0018518241 0.027188092 -0.027555259 -0.05682201 -0.05955428 -0.01338 0.03803826 -0.0047763446 0.084159814 0.092501484 -0.07337567 0.06194524 -0.007600659 0.010130284 -0.012133351 0.13749826 0.093544625 -0.00970388 0.06570083 -0.033560798 -0.06602805 -0.03789108 0.017911535 -0.025429482 -0.06086646 -0.1384834 -0.029594287 -0.035455644 0.055574995 -0.050627295 0.0007981248 0.0051770494 0.045050766 0.0064218407 0.036687862 0.0147095965 0.039573565 -0.0646837 -0.039040208 -0.047386836 -0.025457459 0.04077281 -0.0129358405 0.06419951 -0.030205732 0.014270441 0.0130871525 0.058648057 0.026129311 -0.060852863 0.04239584 0.049304787 0.13107558 0.02461893 0.049551826 0.08275339 -0.13788368 -0.044185717 -0.061726928 0.048763543 -0.070172116 0.00012462123 0.07332868 0.044886563 -0.010771663 0.008822354
sugar -0.04237115 0.0012127471 -0.017470054 -0.064309336 0.03654216 -0.06121294 -0.0019133823 0.08695922 -0.049920607 0.060518462 0.10151221 0.053149037 0.07350533 0.045200758 0.013054416 -0.10940851 0.06712862 -0.032981046 0.04473287 -0.010291819 0.06013781 0.003184433 -0.09732116 -0.11887584 0.08658912 -0.009639893 0.07509156 -0.03724674 -0.100662924 -0.013668433 -0.06506071 -0.05911963 0.07974414 -0.06743586 0.019621158 0.03482725 0.01973476 -0.028987845 -0.05484692 0.02038272 0.059489883 0.02842057 0.14155936 0.025777832 0.021242406 0.0011249646 0.09416173 0.078355044 0.0115289 0.05736221 0.09946093 -0.022949534 0.011277983 0.02218233 -0.032590713 -0.09549649 0.08307858 -0.04310853 0.016421493 0.009069069 -0.13087927 -0.102922834 -0.012480899 0.070170484 -0.10336061 -0.10040286 -0.015825592 0.080830626 0.0883497 -0.07017355 -0.04308571 -0.09158698 0.013715074 0.030076394 0.026427224 -0.013546685 0.03251618 -0.08786081 -0.12942019 0.002672765 -0.045613494 0.010295215 0.06731456 0.009753853 0.12619501 -0.074967995 -0.07693717 0.059856903 0.03545958 0.05100049 -0.13345733 0.0678509 -0.05947473 0.05869111 0.0011625479 0.020786965 0.038816407 0.04579527 0.03835691 -0.009574986 0.07868283 0.0030811336 0.052706305 0.0009377452 -0.017628636 -0.011948981 -0.015476519 -0.009476994 -0.1120515 0.046643533 -0.10155971 -0.044402845 -0.027234972 0.03412865 0.048378244 -0.07239824 -0.08595112 0.08356835 0.04679503 0.014219746 -0.025574451 -0.0469603 -0.08704678 -0.048035517 0.026164439 -0.019168274 0.05599567 -0.06095438 0.064755216 -0.030155228 0.020452335 0.10152283 -0.014348631 -0.06507001 0.052408338 -0.04135946 -0.04762909 -0.026465368 0.030005947 0.11970559 0.057282496 0.029503223 -0.002134748 -0.04299976 0.05318491 0.04035211 0.1419922 0.025216766 -0.0882043 -0.026085902 -0.033915877 0.071503505 0.05988422 0.020951327 -0.10310927 0.03006463 0.036468163 0.005256842 -0.0026669756 0.018337434 0.01620994 0.102848805 0.07280171 0.029182866 0.021800993 -0.053550787 -0.034519237 -0.0139708035 -0.058533426 -0.06177444 0.05338472 -0.069806166 -0.0061601745 -0.028904594 0.07467396 0.020275306 -0.07541741 -0.013161677 0.056554534 -0.058888253 0.0011190007 -0.05453026 -0.004353659 -0.0037467713 -0.0035773853 0.117090404 0.027163923 -0.02073574 -0.028238075 0.08299528 -0.090105586 -0.0356897 0.063321754 -0.03384728 -0.021250512 0.02429783 0.029043725 -0.042245205 -0.030480841 0.004306389 0.0033429582 -0.080847025 -0.07924151 -0.035923537 -0.03409847 0.019019099 0.0065845726 -0.019715115 -0.082577586 -0.10480824 -0.0013745527 0.007771107 0.025371978 -0.027912213 0.01690642 0.13088678 -0.030077064 -0.053830814 0.05644133 -0.14160454 0.008239832 0.06740784 0.08104288 0.023062823 -0.034582954 -0.04114614 0.08404918 -0.0052721966 0.009134171 0.03320783 -0.027454982 0.079050586 0.049584918 -0.018730314 0.048889965 0.12288021 -0.0071021467 -0.04476274 0.004027156 -0.017595654 -0.040974256 0.06298078 -0.11941537 0.08873445 -0.12986836 0.0784907 0.0022993365 -0.016209887 -0.026100313 0.012234764 -0.018739864 0.066575676 0.061573252 -0.056266185 -0.028102618 -0.052825954 0.0014571428 -0.05183807 0.052286875 0.08865494 0.005015011 -0.013310585 0.007785109 -0.084200114 0.019722411 -0.03000587 -0.07244131 -0.016993675 0.09475493 0.12269821 -0.01390303 0.039124273 0.0049540317 -0.015029538 0.0077022063 -0.0052551753 -0.05603846 -0.042630013 -0.03580526 0.04056683 0.050215937 -0.04094781 0.060337313 0.028995391 0.061553027 -0.057293415 0.04265931 0.023203759 0.07282232 0.018778065 -0.011312269 -0.023876568 -0.0730687 -0.046745006 -0.04539004 -0.04300374 0.069436565 0.018347306 -0.016648263 0.051244326
olive oil -0.041721817 -0.03792849 0.08094814 0.008290257 0.10220279 0.045743544 -0.05370542 0.13729234 -0.019695817 -0.011707168 0.013517353 0.002626171 -0.05279234 -0.0031640567 -0.014302541 0.0040519717 -0.042118464 0.0050639994 0.052872036 0.037441857 -0.10927307 -0.07598806 0.04693034 -0.039571065 0.021906758 0.0043561235 -0.047376476 -0.022374118 -0.008963171 -0.026916612 -0.0792203 0.0070478306 0.058858216 0.023334494 0.040358644 0.038933925 0.047955222 0.09361403 -0.05540039 -0.06465953 0.028634654 -0.0840941 -0.1346254 0.037454236 0.0006934158 -0.039539803 -0.005724817 0.0035597375 -0.02704483 0.028810011 -0.039958294 -0.025359988 -0.024896694 0.024801176 0.03947436 0.056453794 -0.08383314 -0.016867096 0.0039525745 0.0018197106 0.09480686 -0.033957545 0.029463368 0.01254205 0.102281325 0.051320914 -0.0002863109 0.06353626 -0.09360399 -0.020515155 0.0011042567 0.06446691 0.017406894 0.056575105 0.08330888 0.023696676 0.05885886 -0.070702225 0.04310409 0.016713852 -0.033436287 0.0036622041 0.019748464 0.062482517 0.13047841 -0.046024844 -0.14381187 -0.116060115 -0.010681722 -0.13388513 0.10801739 -0.026762022 0.0062610107 -0.06289274 -0.018823015 -0.050719444 -0.020548237 -0.029235626 -0.1451273 0.04478045 -0.12708737 -0.032194797 -0.058426052 -0.017760577 0.05480934 -0.041799113 0.25007135 -0.21650705 -0.04541922 0.053602174 0.09856289 0.0042504324 0.015271648 -0.02653549 -0.08857881 -0.013900728 -0.014133937 -0.018205531 0.0010980627 0.10710518 0.015435424 0.009895303 0.06456154 -0.027165307 0.04360725 -0.16085136 -0.13459095 0.11029926 0.032070346 -0.059515715 0.07075795 0.0149054 0.006938495 -0.08014246 -0.071474895 -0.0073451335 -0.0049518733 0.013829477 0.06712183 0.10072742 -0.015429814 0.044604197 -0.03381164 0.03345791 0.033485003 -0.023771657 0.102147974 -0.012071418 -0.052422408 0.11527042 -0.0024585724 0.032516487 0.002069739 0.044916682 0.051316563 0.00786621 -0.03801836 0.049901545 0.0032353248 -0.0023854314 0.034205675 -0.04024774 0.080513485 -0.059297472 0.08753728 0.056906015 0.025837867 0.051109847 0.056590885 -0.08756173 0.021528464 -0.023103679 -0.026804771 -0.054565225 -0.0038688034 -0.04370363 0.019112833 -0.008555884 0.0067376317 0.08342834 -0.002513084 -0.0050923578 -0.07727436 0.049764603 -0.08286388 -0.029931279 0.08564685 -0.033874203 0.025987789 -0.030904932 0.018109458 0.020203844 -0.07477279 0.05015362 0.110130414 0.06267614 -0.010406382 -0.010023116 0.037554916 -0.045322005 -0.045196407 -0.0699545 0.05472029 0.08645876 0.022085447 0.093882926 0.030691328 -0.059228502 -0.014125366 -0.012107103 -0.036481787 0.042206377 0.10848241 -0.0031217868 0.003951285 3.902151e-05 0.060604956 -0.03133768 -0.010499138 -0.019648168 0.051108684 0.062006205 -0.08398595 -0.01528388 0.06956643 -0.05605346 -0.043185957 -0.05921037 0.01958121 -0.09043844 -0.009415552 0.0868763 -0.029766785 -0.04848591 -0.025043521 0.01917141 0.03250695 -0.038876582 0.056338612 -0.07792183 -0.019104926 -0.101821244 0.014377645 0.03260976 -0.05161989 -0.015059573 -0.023110177 0.014848614 0.090555385 -0.025250658 -0.016220065 -0.014414059 -0.02698333 0.00012231339 -0.05557272 0.004471119 -0.031584933 0.009603504 0.06976745 -0.054771848 0.037858505 0.029955033 -0.02914842 0.021625604 0.019037234 -0.00627727 -0.08387302 0.014488523 -0.05456841 -0.007894439 0.012714497 0.015299613 0.03510334 -0.059336517 -0.020359863 -0.016631782 -0.000304823 0.038042583 -0.022892652 0.031775348 0.049219094 -0.022807205 0.029817857 -0.042839818 -0.020210413 0.081561215 0.006452878 0.056609746 0.018696554 0.029789355 -0.077381745 -0.0010294442 -0.048857365 0.079493605 -0.0014842135 -0.012007555 0.11010703 0.13419446 -0.056904003 -0.046565756
water 0.2414969 0.016361818 -0.13182947 -0.050378513 -0.006281453 0.049418192 0.035057105 -0.12917624 0.10374008 0.0033099127 0.06138034 -0.10306228 0.046935387 0.03324633 -0.041529134 0.13014308 -0.007225847 -0.06464149 0.031865437 0.051474158 -0.032713294 -0.016061336 -0.07950416 -0.05274798 -0.12600288 -0.018024852 -0.016002579 0.007870127 0.039226923 -0.016994176 -0.015671382 -0.011376605 0.06346578 -0.010991443 -0.025017306 -0.026998825 0.07419939 0.014523134 0.049129922 -0.005599819 -0.019059364 0.034921397 -0.011376915 -0.0071236226 0.010609367 0.030577915 -0.028457688 -0.020513726 -0.02347105 0.051143467 -0.024695255 -0.011603938 -0.030891584 0.055800356 -0.016276961 0.04655368 -0.012930368 0.03944134 -0.016524969 0.09007328 -0.070801206 -0.02244054 0.002134111 0.033539396 0.03042498 0.042735796 -0.03860281 -0.036177613 0.0154140685 0.0058140387 -0.06287637 -0.023206819 -0.07739949 0.0024746484 0.0667929 0.11734962 0.03857461 -0.026093386 -0.094342634 -0.010419051 0.0029878875 0.1047095 -0.013868565 0.004248052 -0.04823187 0.070436455 -0.0127088735 0.022940872 0.05149891 -0.0344701 -0.08622102 -0.01819657 0.0069938228 0.017163737 0.0042607086 0.011236886 0.010785575 -0.025217922 -0.061000235 0.035715528 0.02453848 -0.027310498 -0.0111252135 0.05178572 0.03806538 -0.023175959 0.020783732 -0.06849095 0.04400694 0.055528857 0.028632013 -0.012737708 0.06525177 0.01371789 -0.011269955 -0.07685116 0.0030456565 -0.09253372 0.06513815 -0.042376082 0.069433086 -0.059115328 0.06882663 -0.0027011086 -0.0032411478 -0.07879368 0.047579557 0.020960331 -0.080553174 -0.002546683 0.043960504 0.0439622 0.07548057 -0.08348657 -0.04822273 -0.093799256 0.02668776 -0.0726264 0.031754166 0.057855 0.0202246 0.06551867 0.025271026 0.076176606 0.07496051 0.029913226 0.071697965 -0.05045253 0.005989502 0.026701774 -0.060935218 -0.091834664 0.0008970378 0.08043606 -0.0022697337 -0.07118979 -0.009978757 0.097298026 0.012084197 0.043704707 -0.012452227 0.028540822 -0.041946586 -0.111922294 -0.02843158 0.0010995833 -0.01023951 0.0948874 -0.004686741 0.02536693 0.070142455 -0.081879295 -0.062938586 -0.058296766 -0.0052782 0.094817795 -0.053483386 -0.0028136466 -0.0653602 -0.065847576 -0.09350538 0.0018571399 0.014848076 0.12548393 -0.08716119 0.032909956 -0.05065984 0.10463637 -0.02445699 0.0033197075 -0.02131312 -0.06546802 -0.062227692 0.09220847 0.09425448 0.0022247408 -0.019046543 0.059039347 0.068302386 0.014925895 -0.10199634 0.01398619 -0.091297865 -0.08167253 -0.010031317 -0.025690362 0.017005915 0.020614572 -0.022712339 0.03995825 -0.07138793 0.028696327 0.056032497 -0.0258234 -0.040632546 0.04208057 0.024301548 0.0063992357 0.058827706 0.001373983 -0.13602518 0.02244115 0.042576928 0.017092515 -0.015704865 0.07730333 0.15521152 -0.0025194818 -0.019440733 0.1330959 -0.057087418 -0.033408992 0.07959435 0.047421575 0.009792845 -0.096718095 -0.030180681 -0.027765725 0.0030648487 0.0040050144 -0.011778748 0.007972228 0.005414912 0.08914648 0.026483575 -0.041454766 -0.014048883 -0.015810912 0.032025985 -0.046509635 0.02254841 -0.004916673 -0.04494506 0.017954733 0.055057153 -0.041019924 0.019778319 0.058435313 -0.017156243 0.03068711 0.008771098 0.023985725 0.036784332 0.037498668 -0.018320309 0.054669604 -0.09867599 0.108786166 -0.055410452 -0.04801085 0.088716395 0.045935955 -0.099413894 -0.052551202 0.07071943 0.012798331 0.15507641 0.17158686 0.032125458 0.03496794 -0.04780869 0.032893952 0.009409138 0.009545496 0.024622899 0.0041964985 -0.02718239 -0.035741497 -0.04324387 0.09021444 -0.09115841 -0.02311145 0.095457286 -0.06426814 0.09898249 -0.057110995 -0.019959304 0.099899925 0.09745564 -0.12701632
egg 0.1552295 0.014944975 -0.08470366 0.015928185 0.025295248 0.03790505 0.13364735 -0.009073779 -0.0061424645 0.07054946 0.07970311 -0.17429183 -0.048851073 -0.0122840265 -0.044557482 0.10458427 -0.14787179 -0.018711459 0.01523681 -0.028983647 -0.050170954 -0.009227479 -0.038163796 -0.023380699 -0.13025714 0.08355365 0.09153294 0.04015624 0.15123123 0.12521541 -0.0077148187 0.053419854 -0.047775213 -0.047950305 0.14164045 0.008462151 0.012490225 -0.0014676218 -0.08130973 0.025141174 -0.0058734324 -0.058953665 -0.03912865 0.07877149 -0.07755533 -0.08123042 0.019170718 0.01300401 0.050900955 -0.044181347 -0.12070948 0.033435974 -0.01975137 0.012184391 -0.043471076 0.08544199 0.015424127 -0.100117244 -0.0062290165 0.012979881 -0.0024816585 -0.06974666 -0.05555604 -0.031632096 0.040246706 -0.036019504 -0.037876975 0.008137576 0.043750882 -0.035021912 0.0040830127 -0.05540828 -0.042398818 0.0014621407 -0.0674872 0.047651064 0.06945823 -0.035010345 -0.05595384 0.055425715 0.055320393 0.027512427 -0.0040451335 0.04406364 -0.034297865 -0.036239535 0.12305372 0.078099936 0.05730552 -0.070704095 -0.028234936 0.0073182136 -0.04053213 0.06677925 -0.0038694942 0.031227067 -0.02463963 -0.027810669 -0.010146098 -0.12459908 0.03522252 -0.018140992 -0.015543159 0.036592957 0.0021223668 0.027755307 -0.053057447 0.11132363 0.044398278 -0.061302382 -0.073309176 -0.017205173 0.045081016 -0.006630335 -0.007438319 0.005005354 -0.013018172 0.022335574 0.053583853 -0.093446136 0.025605056 0.04671665 -0.026400423 -0.06278162 0.026000487 -0.023527056 0.04617951 -0.0033702338 -0.034945574 -0.052685775 0.013737523 0.019543527 0.0003504099 0.023393229 -0.054811448 -0.044723235 -0.022583907 -0.022218848 -0.046494633 0.017456083 -0.031353787 0.014521523 0.010489515 0.040134765 0.03238232 -0.007923622 0.10990987 -0.00966518 0.015571322 0.0011068729 -0.057752743 -0.020419085 -0.056815777 0.051500633 0.09281755 -0.04895867 0.0788321 -0.018614586 -0.060192674 0.0035552913 -0.043549884 -0.0049859085 -0.068719506 0.013665716 0.056514464 -0.05522217 -0.030202381 0.05630614 0.059097227 0.088849306 0.059045073 -0.037759162 0.042697094 -0.03202718 -0.030926049 -0.009814387 -0.091867216 0.03009875 -0.037663322 0.06629513 0.025642619 0.07677742 0.05585683 0.08682864 -0.04661969 -0.10554701 0.067610316 -0.054920554 -0.047003243 0.05186641 -0.052767746 -0.05891307 -0.042843107 0.012314205 -0.06478284 0.03134313 0.07946402 -0.017495357 0.09222979 -0.0027736549 -0.019633587 -0.0006534012 0.04534591 0.028037263 0.055829365 -0.062426005 0.022235204 0.06258604 0.055603683 0.076255836 -0.07906624 -0.060495373 0.003299794 0.07123307 0.08456603 0.067420416 -0.00558404 0.014773053 -0.07996256 0.027754834 0.051529575 -0.010050698 0.054937523 -0.031367008 0.10952576 -0.023437625 -0.047975395 -0.08943743 -0.0029406874 -0.040229693 0.12117726 0.071329996 0.058633216 0.008584733 0.017429838 -0.12819709 0.005738758 0.051072888 0.12177716 -0.121950135 -0.14370014 -0.05204349 0.06525162 0.022629507 0.037422467 -0.14590687 -0.0040168776 0.018315583 0.07701382 -0.04687374 -0.0076380316 0.055827025 0.038083375 0.044129506 0.07245743 0.019190356 0.092883594 -0.027259493 0.03644333 0.07615339 0.005621404 -0.020864775 -0.094853565 -0.0042058975 -0.031389244 0.024479084 0.030743564 0.040772874 -0.038604137 0.06307481 0.038534846 -0.010558132 -0.034326557 0.006440515 0.0819546 0.029806562 -0.034395732 0.025890643 0.040939394 0.035781745 -0.021551654 -0.021025714 -0.021822229 0.0409224 0.008450749 -0.06985014 -0.08422374 0.051109362 0.09034622 -0.024581077 0.009683719 0.028666304 0.0020981506 0.010256936 -0.02165799 0.008161887 -0.11508841 -0.11494193 0.026906488 0.08916843
 0.24069259 0.0077054594 -0.1060245 -0.08054482 -0.046227034 0.037195332 0.08241974 -0.03713817 -0.0044740792 0.10567994 -0.0060081067 0.0032072437 0.05963201 0.053081594 -0.0029373753 -0.06986435 0.010303093 -0.054732412 -0.078783765 0.033333752 0.024581593 -0.06722475 -0.015923303 -0.07244236 0.0048023774 0.0033875485 0.083500914 0.065636456 0.07931143 0.004621301 -0.00777721 0.07750015 -0.04669865 0.019887092 0.0010058631 0.03901396 -0.03562299 -0.04865377 -0.0010337541 -0.0626109 0.040655572 -0.05893606 0.002451612 -0.021063415 0.095208675 0.02791813 0.032852143 -0.026823994 0.04025668 -0.022289282 -0.016858244 0.052041925 -0.03636332 0.043257207 0.037623636 0.053119328 -0.0018463755 -0.070471935 -0.04949783 0.030816557 -0.031799015 -0.16132216 -0.08694385 -0.019951113 -0.026244592 -0.0924524 -0.017512714 -0.029544953 0.044890143 0.027148282 -0.031879462 -0.095332235 0.018557519 0.12377979 -0.039337445 0.09812893 -0.025312757 -0.10387365 -0.05824824 -0.027176468 0.01890191 0.03503024 -0.004581386 0.03297151 -0.049115423 0.11966267 -0.13227987 0.07366297 -0.008119869 0.05516084 -0.11317012 0.057575677 0.014503075 0.0656233 -0.017005686 -0.064675674 0.053279646 -0.0072863903 -0.0776978 0.05039824 0.015127124 0.02329508 0.00055934215 0.0073390766 -0.0029609809 -0.08664534 0.09559847 -0.16221356 -0.076143414 0.008314689 -0.029743085 -0.005170114 -0.06566048 0.087471105 -0.017039604 0.016475273 0.055405952 -0.03525971 0.009542068 0.06803375 -0.004067224 0.025892181 0.015776075 0.041916993 0.010245094 -0.08183842 0.023167726 0.04512912 -0.09212264 -0.005570903 0.08130986 0.009181428 -0.04780793 -0.0071993186 -0.034500267 0.040311113 -0.03675288 -0.103041895 -0.012315147 0.071583085 0.09410684 -0.009856692 0.08824941 0.0023221457 -0.010292853 0.040721316 -0.027077818 0.019924864 -0.08571982 0.018080605 -0.019658701 -0.012982382 -0.006520742 0.10154387 0.05207727 0.054879908 -0.061461423 0.022544585 -0.025580687 0.056418944 -0.029981956 -0.015144938 0.068746455 -0.049562305 0.042004377 -0.021332333 0.045107458 0.018419394 -0.08496559 -0.010284481 0.06623296 0.03780386 -0.0010557459 0.0028601973 -0.12383478 0.066356055 -0.17011668 0.01709014 0.015612107 -0.06009701 -0.022837965 0.09408677 0.06922753 0.074849926 -0.06778893 0.0985857 0.01848813 0.05166922 0.00315496 0.036456455 0.0020719378 -0.042041007 0.059261296 0.03884793 0.045145497 -0.02376815 0.013490341 -0.031678237 -0.0059632375 0.03515999 -0.09054163 -0.008466373 -0.047711574 0.015758608 -0.0912581 -0.060606614 0.044875268 0.026663408 0.0003373199 -0.07836485 -0.02077562 -0.057641674 0.053074498 0.07534806 -0.026922427 0.0651656 0.08378105 0.02397951 0.060166296 0.08118178 0.034261778 0.05193242 0.08097238 0.06950104 -0.11111683 -0.021106938 0.026716098 0.026676878 -0.058368064 0.014301178 -0.0709782 -0.019453652 0.047454476 -0.03340085 0.08535181 -0.003903719 0.06916094 0.03814577 -0.0598738 -0.021133685 -0.030616958 0.062384296 0.014358736 0.13793077 -0.00028036546 -0.013726842 -0.12321201 0.032568622 -0.030364016 -0.052210845 -0.045230463 -0.049902946 0.015826097 -0.027162796 -0.020225376 0.037452046 0.0097475005 0.043526046 0.04610553 0.055815835 0.0646904 0.07152649 -0.03199677 0.06516946 0.011736909 0.013433556 -0.04458788 -0.06756728 -0.06080185 -0.009628202 0.07356464 -0.026477871 -0.050022636 -0.07230129 0.051208206 -0.0002851515 0.059682928 0.060074884 -0.01683695 0.11147112 -0.056672633 0.10459177 0.012541713 0.087490804 -0.05717146 0.016600834 0.065534376 -0.05238538 -0.088006414 0.045936704 0.053640064 -0.066515274 -0.045045447 -0.031673737 -0.07058216 0.05342644 -0.017021604 0.049418006 0.004961274 -0.008504677
ginger 0.012484564 -0.07741125 -0.070340954 -0.023482962 -0.0065157195 -0.04274387 -0.03342943 0.065671965 -0.050482042 -0.061963655 0.0129862055 0.15261476 0.083422974 -0.03998108 0.030482125 -0.090776384 0.009552829 -0.0036985215 -0.00862419 -0.080242895 -0.0185448 -0.0044926754 -0.07030842 -0.026190562 0.12205315 -0.0974229 -0.019974489 0.063193 -0.004388362 -0.0510369 -0.06191552 0.08969114 -0.0044890926 -0.010475816 0.012893328 -0.008420611 0.07149582 -0.013108825 -0.007854423 -0.07828423 -0.054238137 0.061463147 -0.053912185 -0.13519922 0.054903407 -0.033906464 -0.0066697453 -0.048806116 0.065030344 -0.04308132 -0.037403874 0.0892757 0.011875813 0.030042658 0.018854264 0.06374313 0.04306086 0.01937741 0.012671645 -0.012694136 0.015994625 -0.023713596 0.0151437055 -0.06164831 0.022258973 0.06448545 -0.1096689 0.0042194063 -0.06893534 -0.0803046 -0.0678804 0.045685172 0.07710662 0.017267618 0.03090684 0.046574626 -0.041240025 -0.07241119 -0.0053853523 0.015753796 0.03898043 0.018168595 0.028781842 -0.002311403 0.011519681 0.10928874 -0.07360398 -0.025503019 0.0092777 0.00078985305 -0.09509591 -0.059474442 -0.00032061734 -0.017685866 0.0551356 0.035273667 0.11578781 -0.05442762 -0.041005507 -0.03355354 0.03815938 0.017044218 0.0010754302 0.09365817 -0.04535481 -0.015816478 -0.12832934 -0.12278462 -0.07919691 -0.04193171 0.0067032324 -0.041408464 -0.14049713 0.08152517 0.015369932 0.0022869036 0.05469167 -0.10929513 0.09315291 0.089863166 0.037163902 -0.0838709 -0.04339306 0.08480678 -0.061587144 -0.043447196 0.07761199 0.11311019 -0.049076073 0.025631359 0.067693986 0.0611785 0.055838402 0.06070041 -0.05277508 -0.020053977 -0.07323043 -0.09500618 0.026907427 0.044938426 -0.035061188 -0.0132663315 0.026858712 0.04519458 0.09202592 0.045119938 -0.06359003 -0.015631804 -0.04635156 0.0046549486 -0.07910289 0.023878226 -0.077061206 -0.025704639 0.035724692 0.00068308477 -0.068681285 0.08720088 -0.0037661593 0.07416383 -0.009489131 0.0696272 0.12033597 -0.07035341 -0.026168363 -0.032058496 0.05338279 0.017703539 -0.09314307 -0.07175881 -0.098265804 0.037134513 -0.0108389435 -0.06137698 -0.08824628 0.01718246 -0.10578968 0.064205125 0.06541429 -0.026124515 -0.06645334 0.057691604 0.020866795 0.09079587 0.05140271 0.06356014 0.0083743 0.05000978 -0.022971181 0.053542264 -0.050662998 0.023415515 -0.07244067 -0.022221358 0.049369205 -0.018668089 -0.100660875 0.09274035 -0.0064149583 -0.006852034 -0.11411932 -0.013300628 -0.029863099 -0.042541966 -0.07114496 0.1188597 -0.046675812 -0.07172897 -0.073616184 0.007247781 -0.015266974 -0.027632259 -0.058088515 -0.053362187 -0.12364238 0.099026896 0.030709561 -0.03422646 0.04282478 -0.074916616 0.020266918 0.043388773 -0.016240396 -0.031528138 -0.021816298 -0.03773839 0.11255253 -0.07537451 -0.11615399 -0.012575301 -0.07888368 -0.024396112 0.087902494 0.026617756 0.019379422 0.023037981 0.09599984 -0.05473231 -0.014818858 0.048046276 -0.045509398 -0.0832242 0.052076273 0.07916602 -0.03783878 0.0056533683 -0.08504075 -0.003603168 -0.07060886 -0.11194479 0.010640952 -0.03722695 -0.05614164 -0.06536744 0.06409787 0.020620797 0.020307777 -0.022182401 0.08115552 0.04581945 0.0021931084 0.05806933 0.09133159 -0.003258175 -0.056227177 0.01523295 -0.005550945 -0.011689403 -0.042089146 0.019839639 -0.04204914 -0.03220451 -0.03305471 -0.028747726 0.042654086 0.079036 -0.07585687 0.020999309 -0.025043176 0.098265655 0.0060830056 -0.0075396053 -0.052189067 0.036727034 0.017817657 0.036437884 0.015774619 0.023813864 -0.012854351 -0.062082943 0.049019713 0.026089825 0.023450721 -0.0044299825 -0.018101027 0.081123 -0.026536217 0.016932247 -0.041153125 -0.0772613
tomato -0.13778767 -0.045865785 0.023584273 0.09252006 0.116600394 -0.03175153 0.0015472544 0.14551628 -0.036161587 -0.114201635 -0.15108378 0.1352439 -0.029940093 -0.09159719 0.03029459 -0.0644277 -0.056760654 0.014173686 -0.0016557063 0.06644448 -0.06931141 -0.065858126 0.106373616 0.082711205 -0.08358769 0.010886182 0.052563574 0.03929417 0.14861503 0.03941791 -0.009609985 0.115867995 -0.03802464 0.057853892 -0.07578287 0.066681325 -0.09709827 -0.032969102 0.03382675 0.057391975 -0.030727237 -0.050702862 0.055707216 -0.03187796 -0.03235874 -0.04453255 -0.025478397 -0.029141907 -0.012720709 0.03630122 -0.017177211 0.0024237293 -0.049552746 -0.015031929 -0.0007005512 0.053551637 0.033070818 -0.0314245 -0.07946008 -0.034721997 0.06919958 -0.047211118 -0.04112924 -0.08185282 0.08843254 0.014874492 0.019864298 -0.016884051 -0.04960532 0.06760432 0.010080028 -0.023699455 -0.0077778883 0.080666855 -0.027300244 0.08583923 0.033421844 -0.003770999 -0.01956965 -0.055454798 0.0092827175 -0.026270185 -0.05716303 0.09451328 -0.008735709 0.087055214 -0.051831737 -0.038065616 -0.019094424 -0.13670544 0.009325008 0.07079031 -0.0028605862 -0.02047612 -0.038532484 -0.09333916 -0.004358882 -0.006095827 -0.06303783 0.05169681 -0.049939603 -0.0042871544 -0.009116991 0.022681715 0.061009657 -0.015162684 0.22327673 -0.07365382 0.036879793 -0.029741859 0.08619578 0.04956677 0.04425772 0.044700794 -0.043703973 0.03397154 0.03419675 -0.05941544 -0.0046277097 0.07191501 0.027805565 0.03046074 0.070891835 0.00110253 0.076999955 -0.015030581 -0.11807337 0.080260254 -0.028635332 0.021424485 0.015030797 -0.029219063 -0.05274243 -0.03812795 -0.079222046 0.04818158 -0.00097092096 0.022419682 -0.0115574915 -0.015684443 -0.006594091 -0.037715323 0.061398644 -0.0053183236 -0.035470758 0.018254505 -0.08768063 0.016766489 -0.0010801911 0.049150612 -0.008302003 -0.07393095 -0.10883718 0.05457075 0.11422134 0.009917475 0.027645811 0.023259727 -0.008139468 0.031930238 -0.0535082 -0.019989928 0.058115166 -0.06915639 0.06422328 0.11439065 -0.074098885 0.039660014 -0.046988066 0.010482023 -0.0045543993 0.020232376 0.034279484 0.02226834 -0.07937775 0.046912137 -0.0013644773 -0.03654891 0.064112395 0.003068785 -0.080804616 0.07525664 0.010648127 0.07392248 -0.07454522 -0.030459387 0.017622655 -0.07095927 0.040685825 -0.13208714 0.13045762 -0.029100683 -0.015178198 -0.036346067 -0.0130819725 -0.04885763 0.03721944 0.01905686 0.026190445 0.08718232 -0.049994707 -0.015013588 0.03117525 -0.036248494 -0.019711228 -0.10875885 0.075832196 0.004268976 0.08524351 0.01644853 -0.022793883 0.00064040493 0.013402104 0.04163511 -0.044758417 -0.025930684 -0.02785721 0.008992693 -0.03253834 0.117712535 -0.08471056 0.04572936 -0.028570704 0.030923737 -0.070518285 0.034891654 0.009923728 0.09312101 0.009508011 -0.021478964 0.011085727 -0.046021033 -0.030162299 -0.021955991 0.03610475 -0.066858225 -0.007931241 0.01788259 -0.069909506 0.021525156 -0.019753758 0.03343519 0.029038591 -0.0071901036 0.03595019 -0.017814942 -0.015668299 0.009463229 -0.020273875 0.035890263 -0.052829154 -0.06261747 0.010174363 0.020826535 0.041793007 0.046602573 0.10974802 0.024315584 0.009541132 -0.003422092 0.110276654 0.02431856 0.010013285 -0.010556682 0.08806311 0.020054305 0.037576452 -0.017621053 -0.13098782 -0.062036518 -0.043325752 -0.03907657 -0.024075238 0.0335161 0.064161174 -0.021527963 0.103097394 0.08463287 -0.042749073 0.0060937614 0.051587928 0.10079724 -0.03658971 -0.05573917 -0.10080969 0.100023486 0.03839559 0.020086935 0.0017421229 0.05368424 -0.09340119 -0.026615297 0.017963845 -0.031278487 0.011510156 -0.00068876485 -0.0010564652 0.07497466 -0.022298174 -0.14152227
garlic clove 0.2681498 0.07086272 -0.059488684 -0.026744125 -0.09779886 0.039127436 0.104730204 -0.18464762 0.14219855 0.0679674 -0.035458025 -0.13654466 -0.107932694 -0.0017622008 0.055199556 0.13681097 -0.06648962 0.018960647 -0.07879836 0.0460707 0.08550153 -0.02660033 0.034883413 -0.025655882 -0.14327174 0.07063792 0.060987834 0.0061505293 0.0870782 0.10452155 0.09597915 0.047408696 0.0012077475 0.0073066177 -0.046049725 0.0049737026 -0.04754509 -0.057446003 0.046009917 0.028991247 0.05255356 -0.065534495 0.11170664 0.10374667 -0.092544526 0.037450206 -0.02272723 0.006159021 0.0014990048 0.08483779 0.023890391 0.02196784 -0.013789882 -0.026819108 -0.13056599 -0.042554356 0.0033380734 0.05584997 -0.050247453 -0.027480597 -0.05338299 0.09870617 -0.029118875 -0.03547207 0.052361295 0.037867334 -0.06944642 -0.066324405 -0.006295455 0.0663207 -0.016529093 0.0022921849 0.011245156 0.032990396 -0.03531566 0.02171043 -0.00866783 0.09100875 0.02747097 0.023176424 0.003975767 -0.024437068 -0.03164777 0.011025849 -0.08297142 -0.045752056 -0.0073062708 0.010780468 0.03141716 0.12087291 -0.0065663955 0.106051 0.024172306 0.08528187 -0.026918521 0.026267696 -0.013774901 0.05128958 0.06495647 0.083528526 -0.09799963 -0.032002676 0.046589613 -0.066549815 -0.0029009653 0.012417125 0.026485395 0.018412381 0.011282945 0.05215114 -0.028544718 -0.017497499 0.074855044 0.00048792706 -0.06569287 -0.030893628 -0.032909375 -0.0019185747 -0.040808957 -0.036880694 -0.040781893 0.070766345 0.018711206 -0.024243517 -0.0077940174 0.0452353 -0.0025527156 -0.037491754 0.05404166 -0.005852321 0.0032066733 -0.007160621 -0.07410269 -0.058749907 0.029125765 0.0026048466 0.036654633 0.0012882815 0.006241733 -0.09706159 -0.009381806 -0.06642978 -0.0012190333 -0.0062402715 0.004630495 0.049783632 -0.002345237 0.04431087 -0.059613828 -0.0410332 0.041375455 -0.022412265 0.027624132 -0.035874534 -0.08823694 0.10660876 0.1703136 -0.13989374 0.0552485 -0.048186317 -0.031639475 0.014920131 -0.022864264 0.06410909 0.01688102 0.05177791 -0.062253706 0.02943627 0.057752077 -0.07007548 -0.0061901556 0.056757133 0.024633508 0.07943916 0.05596971 0.039807536 0.019268645 -0.040768668 0.04685992 -0.021995679 0.08138532 -0.019723136 -0.005228176 -0.06794622 0.0014630583 0.013427713 0.0012357972 -0.07714953 0.09272082 -0.029274493 0.053166516 0.008594082 0.13284412 0.01691583 -0.057374597 -0.031293772 -0.0056887027 0.014366394 -0.029057717 0.08784302 0.028456923 0.009514883 -0.05767501 0.012999256 -0.0018425122 -0.08847669 0.03548333 0.060768 0.04434974 0.05334356 0.08096206 -0.03842417 0.012409462 -0.0039613866 0.024632657 0.0033689456 -0.040840082 0.026832744 -0.03155996 0.07374882 0.053771224 -0.056978695 0.021998918 0.04219147 0.06873506 -0.04957498 -0.11669581 -0.021545237 -0.018139966 0.036092684 -0.012759983 0.049596597 0.028458355 -0.038122933 -0.0075009395 0.0068265684 -0.025376985 0.061524145 0.017572641 0.0339217 0.0438277 0.08754324 -0.044125933 -0.062918104 0.07411487 0.0082418285 0.03500147 0.057798874 0.0069905473 0.018540172 -0.06938284 0.031324226 0.04651305 -0.081309564 0.02582948 -0.04119179 -0.07186257 0.09002046 -0.049806118 0.06196463 -0.026593607 0.0045719533 0.023088774 0.0308372 0.033957694 0.032231174 -0.032366436 -0.018039802 0.07636975 -0.015106428 0.030493887 0.032054745 -0.0251204 -0.007065156 0.024806721 -0.01885583 0.07955237 -0.013318305 0.056403633 -0.025629357 0.040765077 0.050550118 0.04700377 -0.021401627 0.057541516 0.006184305 0.019029072 -0.09519766 0.07621317 0.004281864 -0.04706768 -0.009387615 0.12382089 -0.0066371197 0.06419291 -0.04846737 -0.042935375 0.11846243 0.06662882 -0.0586103
soy sauce -0.1225097 0.04713233 0.10734516 0.02591267 -0.06184882 -0.007350528 0.025271794 -0.076959066 -0.0367978 0.036825858 -0.041982304 0.039294425 0.025325177 -0.028112167 0.018572029 -0.013243482 0.057148416 -0.07106015 -0.03283077 -0.08113245 0.006123823 -0.03115764 -0.07539949 0.028973004 -0.009047906 -0.068910874 -0.08888398 0.0400345 0.0128136 0.0020069964 -0.050886285 -0.0057765474 -0.023917804 0.04525512 -0.14278118 -0.013497062 -0.06474288 -0.1138303 0.025168946 -0.010682317 -0.027819348 -0.08720521 0.0029751565 -0.00908063 0.044887338 0.026921967 -0.024339436 -0.10502094 0.09717999 0.016943762 -0.029580457 -0.00024320743 0.03964235 0.04031813 0.084836125 0.029103383 -0.074824035 0.10182959 -0.006499882 -0.010399559 0.0013828669 -0.018472575 -0.038294297 0.04233973 0.02778576 0.048183165 0.004175387 -0.11180845 0.0188254 0.02988075 0.03503296 -0.0028533025 0.033747897 -0.056949515 -0.04548144 -0.070511825 -0.09122289 -0.0526192 0.11967289 0.018509906 -0.13446 0.06574022 -0.020108476 0.06891547 -0.007206261 -0.04576913 0.08388335 -0.056007233 0.0525867 -0.009823723 -0.09745813 -0.02922497 -0.027604528 0.018553486 0.07652664 0.038789347 -0.005004537 -0.053342514 0.0031255006 -0.06207882 0.014017817 -0.01731682 0.02932474 -0.0318859 0.025996402 0.021458229 -0.022310892 -0.11583628 0.045640852 0.09879036 -0.014117223 -0.0752601 -0.086827226 0.017788384 -0.032904387 0.051264007 -0.08006516 0.0033171403 0.07936394 -0.071414195 0.03148747 -0.012502982 -0.085774265 0.08008897 0.003229706 -0.0797971 -0.058406197 -0.036501486 -0.08876782 -0.023585616 0.0078752 -0.027421804 0.09296211 0.056567542 0.0077593713 0.058146928 -0.05416022 -0.066378005 0.003857718 -0.048002843 -0.019820675 -0.031759214 -0.008347026 0.017561467 0.053303752 0.031083295 -0.06433885 -0.11431671 0.011721055 -0.036416996 0.025963824 -0.112736516 -0.02938042 0.043124437 0.007897747 -0.03897854 -0.12461927 0.046714116 -0.14574574 -0.11523861 0.12438066 -0.007741966 -0.06821027 -0.09147065 -0.05832224 -0.027461369 0.042342942 -0.04635794 -0.111367814 0.050925817 0.025682615 -0.0048909183 0.0011218595 -0.06240333 -0.059354506 -0.026568485 0.049384423 0.024337394 0.063495174 -0.04404394 -0.023654431 -0.09403023 0.041136023 0.013383871 0.045034263 0.040218227 -0.070035696 0.0007109131 0.052293763 -0.016897628 -0.049258318 0.065328225 -0.10220557 0.040181294 -0.05356016 -0.030988706 0.021669209 -0.059085727 -0.0016508383 0.039489552 -0.032794166 0.040785123 -0.10849561 -0.07928678 -0.012324122 -0.0016079067 -0.108143896 -0.036223006 -0.0905658 0.045813866 0.028967997 0.12639177 -0.04220561 -0.036784947 0.041773867 -0.0074688178 0.027833946 -0.09164861 0.08828929 0.060334586 0.017463764 0.053869747 0.09100578 0.019494465 0.039474703 -0.004313981 -0.064618506 -0.012058172 0.022077046 -0.07016091 -0.0030246945 -0.05402525 0.0006272954 -0.08026674 -0.00511236 -0.015501453 -0.030075412 0.017897326 -0.06859623 0.014969114 0.03456974 -0.002178294 0.06120931 0.034157727 0.019639185 -0.1697312 0.060043544 -0.026756277 0.04503349 -0.11383036 -0.02143443 0.08876531 -0.017662264 -0.023093076 0.04763903 0.067044266 -0.07067636 0.028943602 -0.014094249 0.043634016 -0.10484992 0.08945745 0.06704247 0.09176404 -0.076223545 0.045216013 -0.021619428 -0.050366264 0.024870051 -0.02223192 0.08613614 -0.049979378 0.021835832 -0.156402 0.041754846 0.0027950709 0.083589114 -0.036550123 -0.01593719 0.051767398 -0.06501223 0.09712148 0.021245537 0.050336044 -0.00030982043 -0.015004845 -0.0065683494 0.004828312 -0.01892075 0.032733373 0.018224716 0.0673724 0.020791268 0.04015828 0.117499016 0.021013139 0.021149129 0.019800892 -0.0004583453 -0.083370894
bell pepper 0.015335295 0.04175362 -0.09999566 -0.023143075 0.0586088 -0.014306984 -0.0060271216 0.076218136 -0.009111429 -0.06295282 0.014284684 0.0040496625 0.03288144 -0.0834927 0.055544645 0.007156796 -0.088611804 0.027286181 -0.00094218925 0.03200979 -0.1487727 -0.08957762 -0.0039025734 -0.072089516 -0.072835825 -0.0021169446 0.088462405 -0.017410334 -0.06723932 0.026655653 -0.02106962 0.010112575 -0.056424264 0.00145298 0.08590826 0.052467894 0.091651626 -0.02439505 -0.11040588 -0.045874275 -0.0019390702 -0.15005066 -0.03341433 0.015414488 0.004192855 -0.06604917 -0.022121463 -0.057480775 0.06028442 -0.04217415 0.023078863 -0.012575442 0.08722093 0.029071974 0.08833243 0.22419341 -0.03697956 0.026100345 -0.05201134 0.09927698 -0.048661742 -0.058282956 -0.033769127 0.012699651 0.073036075 0.056229442 0.029742373 -0.008715487 -0.0025362726 0.029992802 0.0528145 -0.019990038 0.036862522 -0.061901193 -0.042457066 0.08861665 -0.037700716 -0.02660887 -0.05567492 -0.082047984 0.0010505888 0.037701182 0.03434406 0.026282143 0.0138617875 -0.02838251 0.0100660315 0.0117576495 0.014460485 -0.08116109 -0.08023434 -0.026677549 0.005356081 0.0078980755 0.0576905 0.018937217 -0.011688078 -0.0623796 -0.017300874 -0.1109459 -0.04585432 -0.0346803 0.008313079 -0.01640307 -0.048379675 0.07944229 0.0267995 -0.11958885 0.021816213 0.08063252 0.10708031 -0.008264978 0.06545886 0.0067900494 -0.01877957 0.036819898 0.07469419 -0.04129492 -0.0082160765 0.048337664 0.019014059 0.030663565 0.06402016 -0.03561612 0.009288782 -0.08267924 -0.04054944 0.07616202 -0.05124477 0.006629912 -0.010619275 0.056408532 0.022608487 -0.04102611 -0.14953576 -0.017762873 -0.017136833 0.016957518 0.09449095 0.11108128 -0.05127141 0.025491767 0.14702235 0.029476976 0.07335862 0.049958624 -0.16094214 -0.116299756 0.030099997 0.0086962385 -0.03345564 0.056080274 0.0060725925 0.027554516 0.09402483 -0.026660042 -0.074906036 0.08680099 -0.028604575 0.048970055 -0.01474877 -0.015854308 0.13506924 -0.056649715 0.05023158 -0.03347751 -0.023984123 0.09866998 -0.07066867 -0.006555947 0.05896914 -0.032158475 0.07155102 -0.09149051 -0.013314462 0.084750034 0.06051637 0.11701068 -0.06416205 -0.0033638377 -0.04412129 -0.053897955 -0.036598947 0.0519387 0.049845777 0.022494681 0.01847865 -0.016760817 0.06218131 -0.009530757 -0.0034919572 0.083602175 -0.04598847 -0.008475348 0.06269246 0.004796858 -0.07271621 0.003073748 -0.038384266 0.0571947 -0.10383507 -0.034591015 -0.14191602 0.06771472 0.06650197 -0.08553252 -0.0061091073 0.08594585 0.013970444 0.09132688 -0.021921037 0.10216097 0.08519858 0.018007684 0.014810189 -0.040863324 -0.05349634 -0.008292954 0.054765254 0.056694493 -0.065214306 -0.05159377 -0.06307749 0.00743577 -0.01728412 -0.0024948637 0.02267746 0.026608555 -0.077572495 -0.045074277 -0.026158037 0.034751702 -0.09476697 -0.027244015 0.017061187 -0.058696274 -0.01885218 0.00893033 0.08344458 0.028013773 -0.04799889 -0.02983642 0.020320343 0.056678753 -0.00069098256 -0.05049654 0.007012026 -0.00629917 -0.021020109 0.10071728 -0.049416713 -0.06895182 0.03414156 -0.03104166 0.021324178 0.0041362187 0.038345166 0.047647066 0.02445065 -0.03715798 0.039210096 -0.120879166 0.006627374 -0.034406323 -0.08168737 0.055207092 -0.080041654 0.031002263 -0.011241974 -0.053251922 0.040365368 -0.047880825 -0.075538166 -0.019903073 -0.018522423 -0.02631123 0.054877177 0.053811792 0.021401756 0.09187155 0.0392854 0.06605793 0.037473418 -0.0020346178 0.05966475 0.06425908 0.027430456 -0.06241714 -0.013518963 0.08320812 -0.04689451 0.0041633085 -0.03604645 0.060676645 -0.087548815 0.03678449 -0.073483735 0.002160747 0.032379873 0.046516877
all purpose flmy -0.073649436 0.07359471 -0.0564364 -0.0039073965 0.106490254 -0.07270818 -0.100280695 1.7693976e-05 -0.035646692 0.031295773 -0.04203904 -0.02656046 0.069738455 -0.008691857 0.041170612 -0.079432346 -0.0570032 -0.04226189 -0.06352261 0.04054682 -0.047907565 -0.019515669 -0.0670332 0.030535167 -0.029288562 -0.04374515 0.120004885 0.043729316 0.15222396 0.09287232 -0.029778147 0.028392322 -0.054858148 0.05236678 -0.09626768 -0.021921372 -0.06738576 -0.052005425 0.10246436 0.061371934 -0.10455122 0.06576687 -0.004417421 -0.015864642 0.00035533909 0.031195031 -0.16414765 -0.04641632 0.100151375 0.054606106 -0.056555346 0.034677155 -0.06835958 -0.004284956 0.013187572 -0.03394981 -0.011667592 -0.0718643 0.029877195 0.027847972 -0.031396657 -0.11397277 -0.10643324 -0.0019165394 0.0490361 0.060913436 -0.027199905 -0.10895563 -0.10333727 -0.036602177 0.047791485 0.11812659 -0.020616073 0.016289989 0.049555756 0.16695909 0.043746516 0.0614173 0.08401872 -0.02698209 -0.048998922 0.0299601 -0.1386087 0.014495779 0.04324165 -0.060515016 -0.11159291 0.04681018 0.0036593713 -0.008599872 -0.0018459222 -0.013677316 0.016049363 -0.008773678 0.0035901158 -0.0068698116 0.07800378 -0.0037870416 -0.0039137932 0.03863345 -0.021436498 0.068681866 0.03662076 0.02018779 0.013456922 -0.0873853 -0.023964284 -0.056851827 -0.0688128 0.005680937 0.03781922 -0.020760195 -0.013695576 0.04746386 -0.08381014 -0.103663474 0.002774586 -0.022476554 -0.08536985 0.104484424 -0.046823718 0.035587247 -0.025323639 0.0464525 0.008421786 0.016128365 -0.03314757 0.038738456 -0.07672343 0.061331056 0.07561166 0.013732182 0.006428392 0.038172763 0.023519563 -0.10183381 -0.002262115 -0.12013515 -0.031360384 -0.102711625 0.06652246 0.021379435 -0.044606242 -0.0063615115 0.013870346 0.009192747 -0.03741439 0.07828387 0.027819952 -0.039544694 0.017979765 0.07993533 -0.06320116 -0.1224105 -0.0075292187 0.078485146 -0.005617447 -0.13676903 -0.08106447 0.007575373 -0.0632454 0.008507601 -0.015977817 0.009614848 -0.08411142 0.022490947 0.07466054 0.0015594263 -0.028953658 0.004917935 0.013776857 -0.01499532 -0.08458063 -0.002047966 -0.030377155 -0.07258775 -0.16754496 -0.018800927 0.07441038 -0.029018397 0.08223472 0.060844067 0.020579541 -0.01856674 -0.020519437 -0.041435577 0.051961493 -0.049248464 0.05243148 -0.09716416 0.0143729625 0.027284984 -0.09775262 0.018977173 0.039834943 -0.10321222 -0.061040312 0.046829857 -0.06362527 0.06699594 0.044627283 0.0021986787 0.0014519471 0.0042574075 -0.034283224 -0.03682348 0.01101511 -0.021372495 0.010184791 0.08452059 -0.062165733 -0.014025936 -0.037506476 -0.019957006 -0.029967867 0.018716745 0.07009484 0.05234726 -0.026150288 -0.00873254 0.0007948483 -0.0061082663 0.1098218 -0.076805584 0.062871836 0.00027898693 0.02747566 -0.044967458 0.057928115 -0.023112234 -0.06215628 -0.09104796 -0.0012756109 0.004822786 -0.0816088 -0.0041102185 -0.047270473 -0.0057905186 -0.026467314 -0.053401094 -0.06963956 0.0620028 0.041091394 0.07349916 -0.04335794 -0.08275779 0.005507842 0.056507386 -0.013411498 -0.09042458 0.114126675 -0.025214175 0.0782576 0.013476895 0.03234859 -0.0067378227 -0.0910305 -0.04279314 -0.1009674 -0.014258952 -0.065238684 0.097248554 0.062227603 0.0068124235 0.08363237 -0.053919245 -0.054987952 -0.0037331753 0.0038624215 -0.01701526 0.04739118 -0.062045522 0.049187846 -0.009904227 -0.022470612 -0.027712308 0.0035768582 -0.09433275 -0.07939948 -0.007310365 -0.0074733514 0.13131928 -0.0033207922 0.00857591 -0.012089724 -0.075419836 -0.039363116 -0.08638567 0.012744103 0.0028540967 -0.008836655 -0.017307837 -0.0019969938 0.029091258 0.02969 -0.023507195 0.01897064 0.021032143 -0.0359468 0.019229984
vegetable oil 0.10542052 -0.017026873 0.018534208 -0.020808587 0.0014761151 0.035994172 -0.059505418 0.056357745 0.018493103 0.04649549 0.040677045 0.0063991556 0.009576041 0.036507346 -0.08950257 0.004380537 -0.016853185 -0.053257935 -0.070687726 0.028846953 -0.050464224 -0.057722684 0.01352651 -0.091308035 0.027686741 0.0133981705 -0.004924253 -0.0039034719 0.011939104 0.028206952 -0.04734496 -0.04021765 0.09454668 0.01275198 0.0067346133 0.009761947 0.017540123 0.0033131896 -0.078254275 -0.10881971 0.02389526 -0.045332193 -0.06982702 -0.01900972 0.06906625 -0.017066494 0.063717775 -0.046347734 -0.022428557 -0.04519933 0.02412044 -0.027589219 -0.008423436 0.04886563 0.067139864 0.08963182 -0.0139593985 0.12827864 -0.00020219936 -0.027771223 0.10692626 0.018767484 0.07812328 -0.023842454 0.08714489 0.09461742 -0.020727547 0.057869334 -0.06511471 0.035954915 -0.03283963 0.05904338 -0.0050344774 0.0008218401 0.030516913 0.020241736 -0.011296328 -0.10173375 0.01828281 0.019306935 -0.08752293 0.046894066 0.027860206 0.038609754 0.13216005 0.007105546 -0.16811812 -0.10835293 -0.050512046 -0.10584385 0.019318411 -0.026775511 0.010209099 -0.09206909 0.02117762 0.0044606547 -0.026043849 0.03147518 -0.10716682 0.06488468 -0.12775138 -0.050158504 0.011694043 -0.022908648 0.09810591 -0.029869147 0.2043803 -0.19237417 -0.02773875 0.09131273 0.092770986 0.009905855 -0.107292086 0.037364636 -0.04216383 -0.039603103 -0.013234168 -0.013656171 0.11261305 0.06871867 0.026347196 -0.027276374 0.04672636 -0.046977304 0.03756542 -0.18319774 -0.090263255 0.13670996 -0.003626483 -0.025317121 0.089973465 0.05179166 0.030335696 -0.019797517 -0.112030745 0.026785789 0.017453933 -0.02962789 0.07977239 0.15039308 -0.0034118905 0.096369945 0.0025993756 0.038522143 0.054009598 0.0017458928 0.06875019 0.010369343 -0.06444118 0.061301403 -0.014689406 0.038242746 -0.0077038943 0.033541683 0.009260756 -0.06346936 -0.07426937 0.019099167 0.0089005595 -0.0019222617 0.03478138 0.023083424 0.06466434 -0.02428566 0.04927424 0.0006435931 0.010403643 -0.02438584 0.020716421 -0.09099044 0.02557773 0.0052150497 -0.055563238 -0.03018159 0.0042149336 -0.001159311 0.023231665 -0.009573892 0.00631428 0.046552967 0.003719684 0.023603113 -0.055569146 0.05908045 -0.097729 0.02458757 0.059602093 -0.016593756 0.028452653 0.03320354 0.050864317 0.057267163 -0.08327035 0.03191228 0.08788214 0.031875435 0.009375605 -0.053191323 0.08601877 -0.031135805 -0.047419384 -0.031267367 0.05774627 0.04549209 -0.04120132 0.1280889 -0.03934789 -0.061284054 -0.030332137 -0.014819727 0.041613188 0.03221798 0.07577746 -0.015442741 -0.033062667 0.069785446 0.074345075 -0.03729214 -0.04044778 -0.017484 0.084759034 0.05529031 -0.05091161 -0.009982204 0.0016789993 -0.02360034 0.06717554 -0.05078671 0.014985489 -0.06323529 -0.059788324 0.013366881 -0.038152974 0.022808723 0.010254936 0.061963905 -0.0058295983 -0.042013016 0.038650062 -0.06538468 0.018489262 -0.09738677 -0.0075015337 0.115015455 -0.07442678 -0.034268808 -0.0038016047 -0.034533106 0.016074168 -0.08031759 -0.03835482 -0.005492722 -0.04801057 0.011667806 0.05378642 -0.0009434103 -0.08846121 0.015689828 0.110921375 -0.017373692 -0.0070286435 0.049410086 0.009164298 -0.010406508 -0.051319007 0.04518996 -0.07556782 -0.020933228 0.012594533 -0.0070037534 0.0068682493 -0.013698567 0.0061838576 -0.13021432 0.008422932 0.05739428 0.004557297 0.036668636 -0.047918506 0.13272904 0.023880895 -0.0015425063 -0.012559759 0.01931652 0.0095917955 0.050408006 0.0551605 0.03372776 -0.090068996 0.062079635 -0.043032642 -0.018077468 0.021771245 0.036544975 0.027411962 -0.058979847 0.1490112 0.06621807 -0.019856894 -0.019322647
oregano -0.20360309 -0.06435373 0.07044912 0.0965155 0.07424103 -0.05051427 -0.058826275 0.13730069 -0.06779473 -0.15471512 -0.14371438 0.12363854 4.807996e-06 -0.06668397 0.078559645 -0.07759772 -0.06375315 0.072427705 0.055627756 -0.008529285 -0.11453927 0.059268698 0.026787154 0.035481926 0.06280335 0.012934158 -0.075420305 0.0032900702 -0.0055792728 -0.048023224 -0.042421147 0.08032649 -0.033041947 -0.005074786 0.02830098 -0.023913516 0.08772983 0.1452587 -0.03762614 0.013531328 0.0015240181 -0.0023974134 0.026387248 -0.017023971 -0.0027631016 -0.05091369 -0.063541315 0.057804428 0.0025074827 0.1308805 -0.04108426 0.047042895 -0.0025908554 -0.021926107 -0.08733358 -0.020085892 -0.08914741 -0.13286093 0.043155275 0.124587856 -0.057238966 -0.0140599115 -0.084855266 0.028760131 0.053903885 0.02651901 -0.007653786 -0.087592185 -0.018242322 -0.078022406 -0.0014533356 0.048691723 -0.04410766 0.08255284 0.04469079 0.010728936 0.04681684 -0.045985818 -0.015908206 0.006814722 0.078558944 -0.040407877 -0.033378284 -0.020019196 0.036502957 0.026198326 -0.024646202 -0.051401116 0.068353504 -0.096258834 0.054584805 0.0097342245 -0.009666019 0.05744958 -0.09538214 0.010898157 0.0040102317 -0.070312984 -0.107925676 0.051796563 -0.057093095 0.006615651 -0.0827099 -0.0471419 -0.04398699 -0.013113884 -0.01169012 -0.10338452 -0.02327393 -0.055912144 0.096804515 -0.058753826 0.092555344 0.0006342649 0.0046547498 -0.03395367 0.024272565 -0.08879794 -0.077445716 0.059883542 -0.01290038 0.011747291 0.09729804 0.07652768 -0.010670072 -0.040194944 -0.10326691 0.06823475 0.010613472 -0.020844383 0.010233172 0.033909325 0.08931743 -0.081385046 -0.06020997 -0.054973815 0.019261511 -0.041428704 0.005286144 -0.035983257 -0.048857216 -0.0038172067 0.0391526 0.011183329 0.024839057 -0.0652763 -0.10324856 -0.04972684 0.04272541 0.016238408 0.030900877 -0.032262284 0.059385117 0.07527854 0.029349074 0.098155186 -0.039812624 0.03450039 -0.0016716557 0.111673795 -0.026500002 0.015532225 0.046440966 -0.06363166 -0.0021660435 0.0578195 0.045015335 0.05552158 -0.045925993 0.0052259117 -0.027940208 0.00027369548 0.024922868 0.014141387 0.008762721 -0.06480523 -0.01987403 0.02603565 -0.039319362 0.026483178 0.019291855 -0.057365227 -0.0026458413 0.04698481 -0.019517807 -0.040471043 -0.020562345 -0.024061134 0.049585115 -8.92571e-05 -0.029392287 -0.09117164 0.010368785 0.06151212 0.09690267 -0.057090525 -0.11412263 0.06070755 -0.053786337 -0.019487336 -0.0891869 0.027678318 -0.100851305 0.004880121 0.026778651 -0.018364562 0.01993547 -0.04389198 -0.07960676 0.0540074 -0.11401002 -0.079614714 -0.01512739 0.010788334 -0.06497126 -0.08215049 -0.04134362 -0.010312096 -0.03473991 -0.058324505 -0.027887793 0.030192737 -0.0013754766 -0.0661813 0.013612572 -0.06414211 -0.04462731 0.022663927 -0.07403338 0.02722394 -0.10053711 0.013536641 0.093680575 -0.03992797 -0.00214341 -0.07851803 0.019488482 -0.010733788 0.035229217 0.03760827 -0.040556423 -0.06173844 0.07432313 -0.02083803 -0.060699638 0.057574887 -0.07527323 0.11429186 -0.015169806 -0.07409617 0.046408426 0.027017828 0.014355901 -0.004840259 -0.048285186 -0.054668315 0.035666194 0.005451293 -0.038718496 -0.030790202 0.019363144 -0.06839142 0.032216195 0.02653448 0.03872403 0.003138975 -0.01758286 -0.00033621717 -0.03232195 0.07034749 0.015558395 -0.06221862 0.11410823 0.043512926 -0.048922382 -0.012707337 -0.03465694 0.005457916 0.042793162 0.049430653 0.055988867 0.03396747 -0.0635253 -0.0306608 0.07090878 0.14362936 0.031246334 -0.01599529 0.020095348 -0.05418296 -0.0013624459 -0.029880488 0.029203989 0.020053186 -0.018644726 0.03243728 -0.012398899 0.09764163 -0.017801665 -0.09398147
sesame oil -0.12484534 -0.102466635 0.11762161 0.061651774 0.13406205 -0.07780293 -0.10967019 0.08964352 -0.040958196 -0.09318999 0.04654657 0.092499144 0.07733338 -0.025382157 -0.0036873918 -0.054516297 0.033010215 0.0055770036 -0.083744906 0.010644486 0.035022207 0.020084836 -0.05176577 -0.083927445 -0.038113717 -0.003376622 -0.022268254 -0.017248688 -0.06797837 -0.06896621 0.038941562 -0.0045676073 0.004430572 -0.0734922 0.11560052 -0.00024669012 -0.012121743 -0.09957765 -0.028071122 -0.023224056 0.06457299 -0.06732405 -0.015690915 0.02148987 -0.011903674 0.033005353 0.05190131 -0.0194343 0.047417987 -0.01341623 -0.055502754 0.067061074 -0.033172347 0.063503735 0.020366 0.05465032 0.009176293 0.08931194 -0.059597757 -0.0059785554 0.004869765 0.0055451114 0.018655192 0.01210734 0.04696994 0.020782745 -0.05479399 -0.0065449914 0.013875373 0.0524166 -0.024748942 0.04864206 -0.07941071 0.011682884 -0.0038750393 0.0005314652 -0.07030739 -0.06368499 0.00036456718 0.08073394 0.006947457 0.0629165 0.060714092 0.058997158 0.06261997 -0.080821976 -0.0059039784 -0.044977453 -0.009346114 0.04071403 -0.034579594 -0.035494078 0.034113433 0.0025123188 0.05628291 0.07693487 -0.033252966 0.010352131 -0.07344743 0.02115609 -0.10049872 -0.0054040924 -0.021327028 -0.052605957 0.12668978 0.04797329 0.105064675 -0.074811265 0.057888675 0.085262336 -0.04839217 -0.027993957 -0.045128636 0.024085188 -0.06146082 -0.0864995 -0.05640048 0.03570353 0.16001213 -0.042636756 -0.012185939 0.040445566 -0.0007654911 -0.059651162 0.051980734 -0.111840606 0.016192818 0.106413424 -0.051511303 -0.020183126 0.06354708 -0.030799288 -0.0054770354 -0.02389875 -0.07666398 0.01735953 -0.0020881195 -0.06038368 0.047059096 0.032193556 -0.043725275 -0.0056713875 0.11697487 0.028726432 0.055744894 0.080708 -0.06592062 -0.13711643 -0.0043769428 -0.024945827 -0.02977433 -0.10952708 0.039144345 -0.00792824 0.0028755055 -0.12141235 -0.010974511 0.045287702 -0.088542424 -0.03540529 -0.0069345185 0.11881865 -0.055231094 -0.10710738 -0.024177484 -0.068937086 -0.040312484 -0.048275366 -0.11098638 -0.01610801 0.019787364 -0.085344315 0.0007107232 -0.0070713717 0.047520064 0.07206291 -0.010578083 0.04152043 -0.079709835 -0.03136887 0.026831321 0.008479011 0.027458686 -0.03837233 0.037483353 -0.005815666 -0.008355293 -0.05277962 -0.026455302 0.041229565 0.078731775 0.020480555 -0.07056594 0.002106708 0.05530451 0.009347244 0.08677806 -0.021979904 0.025253996 -0.058928076 -0.05520062 0.09076955 -0.0073080305 0.050190955 -0.024005199 0.026771652 -0.04560229 0.06810962 -0.10598955 -0.006018403 -0.041100737 -0.041667398 -0.0038006091 -0.014395714 0.058898993 0.1279616 0.0064467154 -0.04806984 -0.11063658 0.045296952 0.060156055 -0.008414071 0.15133697 0.06279213 0.026859768 -0.036341622 0.04362134 -0.04829195 0.053955 0.066055775 -0.022991879 -0.054710936 0.005418237 0.009061602 0.037788406 -0.045640994 0.028473515 0.06127321 0.03650589 0.0004298675 0.023878204 -0.064129055 -0.011933141 0.043881394 -0.040126752 -0.07094745 0.043861005 0.010972521 -0.051310826 -0.07712845 -0.07236509 0.069303304 -0.035432536 0.0457184 0.059471216 -0.0047178757 -0.008106586 -0.018794931 0.018269828 0.10957535 -0.014220839 0.037697595 0.0049553076 0.016700907 -0.046208106 0.026546976 -0.09637946 -0.06441295 0.039170947 -0.0046405294 -0.020298902 -0.090206265 0.0063348114 -0.12128323 -0.0013619609 0.083429255 -0.053411305 -0.0015872127 0.05650605 0.13773958 0.015655315 0.06678885 -0.028087005 0.043575138 0.025394006 -0.012937345 0.08884665 0.02316771 -0.06838511 -0.02101557 0.04411704 0.07724096 0.13032708 -0.03221636 0.10046704 -0.065932326 0.015395469 -0.012406854 0.06914082 -0.072769694
lemon juice -0.16544639 -0.045352593 0.06278343 0.10972481 0.11147132 -0.0057905247 0.013584368 0.12889758 -0.14363798 -0.073743016 -0.06493714 0.1469897 -0.03135368 -0.00923985 -0.1127699 -0.046196852 -0.0028155115 0.012381085 0.0470351 -0.018192891 0.030392917 -0.023315711 0.021855649 0.032005895 0.073723726 -0.014545364 0.0823872 -0.09880691 0.058073036 -0.057412125 0.056525365 0.064436235 -0.09678339 0.049384978 0.012664653 -0.027342707 0.0282958 0.011454286 -0.026535308 -0.15726718 0.05724788 -0.0169797 -0.044156577 0.054644898 0.077996016 -0.021740396 0.0665965 0.09427948 0.058167394 -0.002209187 0.03148715 -0.009365599 -0.017893257 -0.022914086 0.051016204 0.06115405 0.036142893 -0.12611769 -0.06456145 0.049670137 -0.02154665 -0.21277122 -0.03760823 0.07575519 -0.020102814 -0.044442993 0.03997541 0.006800324 0.027887065 0.10406669 0.035425227 -0.048826765 -0.0041210316 0.061873738 -0.06779827 -0.01696865 0.048881877 0.0014464782 -0.06264016 -0.021336438 0.034074284 0.004996767 -0.03094922 -0.007822181 0.008600092 0.07360601 -0.055316348 0.15199003 0.009276373 0.056094963 -0.00399168 -0.019280335 -0.0076857065 0.07878068 -0.094201334 -0.10497733 -0.073037006 -0.062485546 0.059822645 -0.06848434 0.07676744 0.08915249 0.0025902356 -0.011982705 -0.041915122 0.052942496 -0.023036346 0.021346105 0.07245084 -0.03455334 -0.0041511343 0.024292698 -0.020742927 0.004593818 -0.021913365 0.0058686924 -0.017813558 0.004881866 0.035787392 -0.053983532 0.025501367 -0.016777255 0.05481786 -0.054386787 0.024317002 -0.06429205 0.11405462 0.030746266 -0.06912322 -0.0011952305 0.023335889 -0.076505974 -0.062142864 0.02648038 -0.0054000667 0.018273037 -0.016600145 0.001373949 -0.040763382 0.040746003 0.03999952 -0.026403015 0.10050628 -0.020213995 0.04449894 -0.0027051799 -0.056339804 -0.0020622879 -0.05497123 -0.025033288 -0.0280295 -0.07786702 0.0054602963 0.0990375 0.0637882 0.064173795 -0.10572203 0.10523566 -0.07485526 0.030104043 -0.04120756 -0.14195023 -0.0033040203 -0.03265913 -0.017008029 -0.036426693 0.059749704 0.034902222 -0.019380461 0.096993856 0.090110295 -0.019876512 0.032393616 0.024712574 -0.0916474 0.032883752 -0.124934606 0.15951683 -0.09205321 0.019447306 -0.045675326 0.040672764 -0.037821505 0.048913732 -0.0047523193 -0.053951547 -0.05225229 0.028426107 -0.09939762 0.005260055 -0.09520411 -0.09602644 -0.0018800902 0.065740205 -0.041585464 0.04232978 -0.088914186 -0.0009428991 0.019930433 -0.05552798 -0.068924986 0.0016103683 -0.0244687 0.043479327 0.022561787 0.017139418 -0.053241286 0.028283466 0.06601304 0.080846414 -0.027858092 0.014988965 0.06349205 0.058259506 0.017507553 -0.017471641 0.045201473 0.092476144 0.07050229 0.022963013 -0.017077925 -0.023248268 -0.062031902 0.036815558 -0.046100765 0.039640706 -0.04441887 -0.005339903 0.05019065 0.007263832 -0.0022579364 -0.02023131 0.002126668 0.08531934 -0.0015309104 -0.02903552 -0.056511026 0.039428886 -0.044846684 -0.1033084 -0.064799264 0.0012198554 0.035310376 0.056830354 0.014947412 0.013625314 -0.029962165 0.13353036 0.01632912 0.04456702 0.016624434 -0.06952385 0.032540794 -0.049587842 -0.06744434 0.044500027 -0.0017351065 0.0068131126 -0.014086892 -0.06469117 0.08358495 -0.043341268 -0.051111154 0.06942418 -0.009486209 -0.04102564 -0.041411597 -0.07760553 -0.030359529 0.0132766515 0.098010354 -0.05086392 -0.01376329 -0.033178918 -0.04684411 -0.019789746 -0.06710633 0.013416373 -0.07716624 0.039721295 -0.01617089 0.012949759 -0.056305658 0.025938118 0.0063164146 0.019726941 0.041571546 -0.0755325 0.02182448 0.044951856 0.0038369414 -0.04061939 0.003630231 0.05665886 -0.021452757 -0.01943062 -0.041395288 0.055309124 -0.05564183 0.006400667
kosher salt 0.017062696 -0.014452291 -0.0081950305 0.08885764 -0.045549866 0.03244151 -0.014613683 -0.020360285 -0.08791711 -0.02297145 -0.012118954 0.09219722 -0.004147619 -0.07293836 -0.0076622437 0.016207978 0.04695278 0.043283015 0.02666541 -0.10308784 0.041412514 0.058507223 0.035989314 0.07119298 0.10943415 -0.07989021 -0.024719533 0.05285336 -0.022932254 0.056631193 -0.07100734 0.0012695853 0.04792262 0.003714313 0.055839997 -0.06968701 0.113380656 0.033966724 -0.05455038 -0.10032449 0.03028729 0.046958335 0.010265933 0.028804692 0.139123 -0.073376335 0.10196718 0.068820715 0.030503243 -0.037471626 0.13411447 -0.082558185 0.07107746 0.03723902 0.057236604 0.0029782248 0.020469613 0.0028961857 -0.022374557 -0.022004103 -0.14806664 -0.035993285 -0.03904237 0.02903835 -0.06555048 -0.030717175 0.001768247 0.05229966 0.019262139 0.1060192 -0.09777778 -0.032621603 0.120741725 0.011974095 -0.051240403 -0.062276263 0.021154264 0.016661325 0.16167396 0.09460007 0.0030884948 0.011014445 -0.074897446 -0.03424062 -0.047904942 0.054846942 -0.017361252 -0.02075607 -0.04735136 0.032742485 0.078511834 0.027206192 0.010812057 -0.054903507 -0.018296538 0.10144572 0.0058711846 -0.015242717 0.030115038 0.04286696 -0.05569359 -0.08248078 -0.014246506 0.054979373 0.01635081 0.0112640215 -0.011940079 -0.009846301 -0.043825954 -0.057478927 0.04915797 -0.018214598 0.011868338 -0.05032654 0.020902911 0.11371801 0.10212844 0.023778992 -0.011340552 0.07554524 -0.15105234 0.04515017 -0.1024028 0.046307564 -0.0034401873 -0.08609945 -0.113171004 -0.07672024 0.053139616 -0.00012756171 0.008971301 -0.010544625 0.011424381 -0.0071891714 -0.10284604 0.056726903 -0.03708178 -0.028475847 0.014188136 0.013567171 -0.010872505 -0.081653126 0.03373558 -0.034605607 0.013108687 0.055626087 -0.0915377 -0.10292288 0.037629742 0.022503046 0.07429938 -0.002071247 -0.08124954 0.020800482 0.048921134 0.008483009 -0.0047548385 0.0054543903 0.058300983 -0.017461913 0.016788265 -0.08969207 0.029705917 0.04769205 0.038811862 -0.08855332 0.0023741873 0.009182965 -0.016357683 0.009639249 -0.04111613 0.08148441 0.029582296 -0.002656599 -0.06842939 -0.05342613 0.068794094 -0.048197057 -0.005288161 -0.0004263083 0.0027780153 -0.0006952087 0.009876115 0.0014565979 0.05028178 -0.024217164 -0.00028041584 0.057666916 -0.045263454 0.10935331 -0.027009357 -0.04444192 0.038219344 -0.073268235 -0.029844673 -0.04739299 -0.057260435 0.07650216 -0.060272295 -0.00081996137 0.0729731 0.023449104 -0.050186023 -0.064772815 -0.0019476492 0.06363187 0.07321749 -0.030457783 0.005674258 0.030720806 0.06900389 0.01718166 -0.04259536 0.077437416 -0.016476737 -0.14400509 -0.022522897 -0.015285764 -0.0324227 0.07267326 0.044551194 -0.034562163 -0.06314861 0.025448201 -0.025360448 -0.023902474 -0.061753012 0.06548859 -0.094663866 -0.05124863 -0.008896181 -0.08384454 -0.029028578 0.0991629 -0.04912147 -0.015149918 -0.028168775 0.020263253 -0.014903089 -0.0036390754 -0.028932152 -0.016070245 -0.06052073 -0.074853174 0.082769714 -0.027091768 0.0165731 -0.049429536 0.05817911 -0.0759697 -0.06046464 -0.038931504 -0.009272123 -0.009623595 0.015284182 0.061685227 -0.057976034 0.012598913 0.0840824 0.097514234 0.08466122 -0.015928067 -0.0040039113 0.01605863 -0.0014891686 0.03942424 0.05393119 -0.03633149 0.0062187626 0.0287182 0.05282482 0.13857311 -0.02720023 -0.018247202 0.01968566 -0.08472534 0.15059064 -0.00044124786 -0.0178993 -0.029861825 -0.095373444 -0.01847505 -0.013495385 0.08326668 -0.08020666 -0.041578863 -0.052207418 -0.13109422 -0.14612123 -0.03704002 0.116601706 0.004890426 0.07671233 -0.09724281 0.051333588 -0.031302627 -0.05444804 0.032461207 0.010536912 -0.08265213
milk -0.07361366 0.07240636 -0.047428027 0.015010137 0.000810614 0.015842339 -0.069066845 -0.01879691 -0.008136779 0.0044145877 0.015015388 -0.0046072365 0.09778133 -0.021843098 -0.13840003 -0.028235791 0.07444071 -0.15117761 -0.03175218 -0.012386002 0.012564227 0.09719795 0.03036657 -0.022862285 0.0096304 -0.04090081 0.08541022 -0.007349076 0.15804818 0.16744126 0.0058173784 -0.013352139 0.043133117 -0.015404564 -0.087723345 -0.056579936 -0.064652964 0.06264707 0.05674813 0.03545059 -0.065429874 0.058189522 0.060034838 -0.047735002 0.0029096282 0.07013927 -0.010916812 0.0784408 0.027766535 0.013053189 0.08058918 -0.13411571 -0.05348769 0.05213693 0.002095362 -0.06951461 0.07084809 0.015813971 0.0019980562 -0.012730637 0.089048974 -0.09150038 -0.015883265 -0.031909797 0.036332287 0.075302154 0.043166514 0.0020426195 -0.05448862 0.12247699 0.020708269 0.038078383 -0.041798163 -0.071237646 -0.027410442 -0.00044240413 0.12240409 -0.007408444 -0.08807929 -0.06121577 -0.062275138 0.039220836 -0.05558454 -0.05849721 0.0408359 0.04871847 -0.015356724 0.06339661 0.022888184 -0.09882751 -0.048070118 -0.012125815 -0.045867484 -0.019854696 -0.02338806 -0.040317502 -0.036769733 -0.0019049782 0.006149624 0.06799349 0.10103366 0.025816472 0.07890388 0.04341582 0.045286246 0.02175323 0.050396524 0.063737586 0.038617138 0.07816833 0.016879786 -0.0032821335 -0.01865721 -0.0009453845 0.015880948 0.022295672 -0.02376891 0.023225818 -0.02625522 -0.055976026 0.062608734 0.00017039703 0.02159415 -0.14438882 -0.02770654 0.05306989 0.08039873 -0.047187354 0.004526468 0.060604382 -0.046226643 0.05941204 0.03381613 0.0016527415 0.030084074 -0.0073060216 -0.058143433 -0.009024924 -0.05547628 0.008214431 0.041776568 0.10967348 -0.06913279 -0.04247975 -0.039174676 -0.032177232 0.17641908 0.15909258 0.023414027 -0.0044162422 0.040159706 0.015304625 -0.07115986 0.04371097 -0.009166186 -0.036003165 0.054806825 -0.104278445 0.04769756 0.07166146 0.02511938 -0.090953834 0.029660508 0.06426092 -0.035757888 0.0070178146 -0.029315038 -0.0034097347 0.06743917 0.057451196 -0.00022271836 -0.008744954 -0.099021025 -0.059751526 -0.03938164 -0.0051372806 -0.045701265 -0.06210414 0.037468236 -0.0062496113 0.052141458 0.14397956 -0.0031052362 0.079691626 -0.09802816 0.036815166 0.022745118 0.11397249 0.012969968 -0.009684963 0.0003883657 -0.032764547 -0.051288728 0.03447362 -0.0073761325 -0.010913347 0.02164333 0.016566142 0.016330052 0.05157774 0.014314709 0.004045299 0.042941052 -0.0918091 -0.032517325 -0.02491973 -0.027395641 -0.0100180525 0.113171495 0.050609086 0.061347272 0.07840992 0.044845145 0.09970291 0.022001615 0.047681656 0.05999808 0.07092881 0.05565852 0.00096140814 -0.08218725 0.04331693 0.028141268 -0.029560523 -0.04423807 0.10846112 0.007142972 -0.0073054857 0.10022362 -0.07170946 0.03836831 -0.017383523 0.0116003975 0.047827113 0.04496603 -0.018979166 -0.13139549 0.0003997931 0.00026611614 -0.11567519 -0.035592888 0.04321889 -0.04084992 0.11131231 0.013309819 -0.07572124 0.011628062 -0.042153805 0.057478458 -0.009856447 0.024318786 -0.024671469 0.069837876 0.017496133 0.03968419 -0.03982569 -0.060137097 -0.02897697 -0.010605102 -0.01957635 -0.07850191 0.033665597 0.024111724 0.024604065 -0.0065767686 -0.057210017 -0.039958823 0.013450643 -0.031498242 -0.052542794 0.05597758 0.03551294 0.0002918099 -0.04113853 0.08492197 -0.035890218 -0.002473352 0.007584812 -0.071082205 0.05825112 -0.0062643248 -0.008257037 0.02867817 0.038656212 0.041089956 -0.05558166 -0.01388798 0.0027925295 0.065346934 0.12900186 -0.09276147 -0.07834781 0.10212801 -0.022307754 0.11559724 -0.09617825 0.10491895 0.010643007 0.030693304 -0.024311818
paprika -0.036106005 -0.0008186392 -0.020042486 0.08919291 -0.003240544 -0.053553604 0.02643663 -0.0052224686 -0.010387953 0.031100715 -0.09924473 0.09225947 -0.03227731 -0.07799357 0.009640899 0.0073860046 0.011707086 -0.054525048 0.038310267 -0.049796313 -0.044322822 0.009570743 0.04112818 0.097179204 0.04429114 -0.066769846 -0.098946996 0.04062881 0.08131768 0.118045785 -0.038975947 0.06713416 -0.046043586 0.028989539 -0.024813836 0.027045876 -0.03865261 0.032934792 -0.10640258 -0.08856221 -0.016632305 -0.076439336 0.08331195 0.00010305028 0.065367736 -0.07301489 -0.0033797508 0.03144675 0.053246103 0.0018648484 -0.041257624 -0.02012427 0.0992619 0.0643722 -0.0042314725 0.08614254 -0.063705854 -0.030749535 0.059039235 -0.028092587 0.01895626 -0.029348962 -0.07588124 -0.059185304 0.05274397 0.08491377 0.046047617 -0.05155283 -0.027958306 0.022876091 -0.02029473 0.035646725 0.029997641 0.00673148 -0.11064637 0.04134317 0.03470228 -0.030976746 0.011184056 -0.028454788 -0.023058403 0.072847284 -0.037412528 -0.026196355 0.035890155 0.024151288 -0.019644203 0.026469182 0.08195717 -0.11145179 -0.03824115 -0.047716413 -0.05085107 0.065930694 -0.104378596 0.04493971 -0.053057708 -0.094231986 -0.0017535256 0.011560335 -0.009076282 -0.05397222 0.073251754 -0.07984684 -0.030182727 -0.018795976 0.050638717 -0.13205011 0.0027829325 0.048619147 0.12758972 -0.093154475 -0.062113035 -0.016463218 -0.04424182 0.01198951 -0.01257927 -0.05190318 0.011953742 0.008519928 0.03239188 0.03600369 0.024728488 -0.0540041 0.04813288 -0.079818845 -0.07515216 0.079583935 0.00037826007 -0.09059219 0.002945275 0.106610574 0.0956091 0.044407394 -0.12595361 0.023533782 -0.031322435 -0.060109947 -0.024827864 0.028674759 -0.007790741 0.03837338 0.09290748 -0.03232663 0.07901631 -0.010932056 -0.10980975 -0.013161388 -0.003869483 -0.053410314 0.035797782 -0.021042228 -0.010620567 0.093465 0.07464482 0.018571734 -0.090638265 -0.032927632 -0.042804785 0.099192165 0.010758561 -0.078769684 0.06196254 -0.037884213 -0.025737653 -0.028796075 0.07953071 -0.060059376 -0.06662365 0.027368378 0.05724859 0.019764619 0.023515502 -0.080795564 -0.081432685 -0.06653028 -0.027415035 0.06576637 0.01557208 -0.013586209 -0.050757043 -0.039529208 0.058240764 0.1631872 -0.038164183 0.06479202 -0.066455394 0.0064475248 0.06497057 0.03268113 -0.08108495 0.011179677 0.01785202 0.092583306 -0.044648215 -0.05108102 -0.19376591 -0.039996777 -0.0377438 -0.013578097 -0.0805898 -0.0025608856 -0.13948233 -0.04455928 -0.03606185 0.025766935 -0.06603611 -0.10627005 -0.037259847 0.034603145 0.0037254523 0.058825023 0.0139957955 -0.0096681025 -0.014589114 0.024691917 0.004283717 -0.076332755 0.061299495 -0.009500542 -0.0525292 0.0834285 -0.01372263 -0.09427584 -0.10428282 -0.00014994605 0.033285875 0.05029733 -0.026078224 -0.0036374342 -0.074317396 0.029474422 0.025050346 0.017886447 0.012140066 -0.020794699 -0.05139304 -0.020233301 -0.011455893 -0.09510769 0.0071945894 -0.029774358 0.043839473 0.09932294 -0.11706815 -0.06854049 -0.004628523 0.036328502 -0.026069824 -0.046278253 0.00247869 -0.007847262 -0.01937006 -0.016434982 0.022715297 -0.002476897 0.056833565 0.0045143864 -0.019552862 -0.0687006 -0.03765942 -0.05364263 0.01483481 0.04393187 -0.049123123 0.05106378 0.100551836 0.008949624 -0.023207758 0.08474138 0.034393266 -0.07607907 0.07408999 -0.05512886 0.03782506 -0.025054494 -0.12638162 0.018776068 -0.07295729 0.07635244 0.01817397 0.07601305 0.0011244648 0.019473024 0.04721446 0.14506572 0.05550236 -0.00727319 0.028280443 0.071921915 -0.077922374 -0.029691858 0.037199114 0.010043358 -0.007419936 0.0015456444 0.098368876 0.10115302 0.02853763 -0.0765891
parsley -0.1740991 0.022862686 -0.03178903 0.024096692 0.080175966 -0.005006637 -0.049271215 0.10876693 -0.035121694 -0.12653443 -0.072442405 0.06910126 0.01621402 -0.1286844 0.09926049 -0.062447976 0.01494262 -0.002228261 0.09009153 -0.015956977 -0.108232975 0.047445208 0.08404838 0.048090022 0.010751909 -0.043534946 -0.057125058 0.01284203 0.03965739 0.07484683 -0.026137495 0.07647588 -0.041082885 -0.009059538 0.019324107 0.059185643 0.008182171 0.109744035 0.032422744 0.092819564 -0.071651526 -0.033048794 0.029984763 0.00029856857 -0.078403346 -0.010773054 -0.12510124 0.0833876 0.066373974 0.09806962 -0.037570164 -0.027612288 0.0042143725 0.024371728 -0.010160568 -0.03624144 -0.05375317 -0.12308433 0.023521127 0.02753534 0.050849028 -0.05934525 -0.10866187 -0.059396297 0.08221197 0.06705225 0.05017789 -0.004108453 -0.07005097 -0.018726373 0.021152366 0.03629018 0.0176448 0.0071632704 0.029273858 0.08216162 0.13250773 0.03239015 -0.00329117 -0.061127413 0.023687994 0.006769461 -0.017389078 0.023035932 0.051743194 -0.02270048 -0.033991594 -0.021059284 0.058538657 -0.15376608 0.0446081 -0.026946522 -0.011965031 -0.007509166 -0.04044795 -0.041201483 0.02552519 -0.073773116 -0.08797912 0.063372 -0.010287236 -0.016723344 -0.036368728 0.012519718 0.036987968 -0.022489538 0.16512157 -0.15299551 -0.029203786 0.0468779 0.12693761 -0.027753409 0.045150653 -0.04006172 -0.052253015 0.023532948 0.00552547 -0.048783846 -0.107449464 0.11466566 0.011693416 0.13251977 0.05060445 -0.056095302 0.01961808 -0.021001361 -0.10394928 0.060810655 0.06515711 -0.005210413 0.0072234133 0.038634982 0.04562072 -0.03932174 -0.061009802 -0.058586527 -0.10211734 0.026355032 0.021546979 -0.005655807 -0.014908945 0.0062598563 -0.020110955 -0.007184217 0.00152209 0.010140895 -0.030786145 -0.036049895 0.04308789 0.042809546 0.08387874 0.015997017 -0.08083878 0.047860608 0.101424895 0.017561305 0.012596128 -0.028282642 0.015359722 0.09055268 -0.022083184 -0.097513415 0.083989754 -0.003413969 0.046441045 0.06842819 0.043611098 0.06549251 0.028475441 -0.032696128 -0.077677146 -0.015261916 -0.037624102 -0.11117233 -0.04731545 -0.0066125924 -0.011841144 -0.02426485 0.017962804 0.012491863 0.047564987 0.033963375 -0.008562807 0.072882384 -0.074859686 0.0073174546 0.055953275 0.034131434 0.0685798 -0.10538133 0.045959365 -0.012354076 -0.01060542 0.051824387 0.04679616 -0.037947685 -0.08412813 0.075315274 -0.09241565 0.029925741 -0.05253966 -0.018630762 -0.032421365 0.004155916 0.02280292 -0.08673767 0.063804634 0.006615618 0.045089133 0.039053917 -0.018673502 0.06245331 0.05456233 0.06330411 -0.0031525618 -0.08101705 0.0054354053 0.019946033 0.069901906 -0.0020540382 -0.10551036 0.02446479 -0.02189842 -0.08092037 -0.024540005 0.0610819 -0.074528 0.07592608 0.051387697 -0.074644655 -0.015677875 0.07110263 -0.005181448 -0.06417987 0.009757794 -0.06531013 -0.07145532 -0.01582965 0.029455911 -0.041294307 -0.044092488 -0.018800465 -0.0030500067 -0.018187547 -0.021789147 -0.029055666 0.008113389 -0.0030856514 0.08942125 0.012225492 0.040403593 -0.062971435 0.04933684 0.026327392 -0.053394794 -0.00054144993 0.046641238 0.0053346804 -0.041497476 -0.07765418 -0.024538973 0.0019433533 -0.044873856 0.0335938 0.06992537 -0.06282516 0.013471791 0.027846029 -0.098881476 -0.046158962 -0.023874413 -0.00033283583 0.054057658 0.035581335 0.04288309 -0.09491348 -0.033560753 0.041445512 -0.004702367 0.011184758 0.030659126 0.02571585 0.052085858 -0.064916745 0.003319078 0.103152625 -0.027233947 0.04211187 0.12596352 0.04998344 -0.09721317 -0.0457848 0.007805361 0.019276885 0.0353525 0.0015991454 0.08610621 0.11521822 -0.014596119 -0.09213599
chicken breast -0.026296895 -0.002688186 -0.05538151 0.064467154 0.14143772 -0.0070461924 0.007887412 0.044084575 -0.023868248 -0.112099074 0.019169781 0.0663926 0.050771505 -0.11529576 -0.0036554607 -0.0070161736 0.036775675 0.0038030073 0.07063551 -0.040421177 0.00309885 0.010904935 -0.08130196 -0.06606001 -0.043687917 -0.085839346 0.008746146 -0.06688252 -0.06121335 -0.09453914 -0.010462044 -0.018877976 0.023680061 -0.028760867 0.056289874 0.013566525 0.12072531 -0.09295372 -0.022498565 -0.06478574 0.101428375 -0.104896806 0.01148981 0.09890931 0.00045385893 -0.015600946 0.03850225 0.04172791 0.17300099 0.079251125 0.06919977 0.06332401 0.019821651 0.014801874 0.023525346 0.046972103 0.030328434 -0.009039265 -0.08455228 0.03738753 -0.22150746 -0.10964698 -0.05319192 0.069905564 -0.02916743 -0.054534994 0.009837285 0.010336691 0.05372217 0.09115573 0.039058045 -0.02713864 -0.0019342162 -0.01501134 0.013881304 0.0028569093 0.048134267 0.017981011 -0.08530102 0.043584086 -0.03112951 0.037343707 0.023598928 0.007508975 0.018020218 -0.039933577 0.06672802 0.007342629 -0.007546832 0.0049185776 -0.101465754 -0.056507986 -0.02907373 0.05156855 0.04672999 0.017745508 -0.007794155 -0.0035658753 0.045443572 -0.059597544 0.01947797 -0.050706744 0.071925275 0.025602378 0.05152115 0.052787952 -0.016208084 -0.026902944 0.09381018 0.09926783 -0.08958703 -0.028826209 0.0020433795 -0.012240612 -0.04948703 -0.08176045 0.021983724 0.016977152 0.1108361 -0.031844407 0.003921996 0.04251308 -0.043035492 -0.055214137 0.07426237 -0.07527172 0.052925482 -0.03645463 -0.026538942 0.06245391 0.009792032 0.0943726 -0.009396827 -0.051687393 -0.038109656 -0.019023666 -0.07509851 0.029066445 0.045558903 0.041220162 -0.020932863 -0.023770807 0.037846055 0.041277908 0.12969936 0.09244487 0.0022511187 -0.059529815 0.027859777 -0.020727936 -0.061518256 -0.005642941 0.01038023 0.030517068 -0.002412734 0.006021051 0.09139932 0.04482198 -0.029331729 -0.03309283 0.001819537 0.0059633674 0.056537665 -0.012623917 0.012052729 -0.09286247 -0.06976732 0.028114127 -0.028594155 0.022316586 0.08904828 -0.10942767 0.046263482 -0.08744307 -0.0029341131 0.044962496 -0.05451324 0.08525889 -0.037721023 -0.033695456 -0.03130675 -0.028464913 0.0076605813 0.048000608 0.0630213 0.09075606 0.05585322 -0.04883919 -0.03192225 0.048593026 -0.069241434 -0.009012486 -0.017973404 0.01218359 -0.015330911 0.065322824 -0.03395109 0.095544025 0.015164147 -0.007282564 -0.04925768 0.048779674 -0.15234035 -0.008552852 0.058664687 0.0179316 -0.07666304 0.06543063 -0.04617333 -0.017717605 -0.027320487 0.12729475 -0.05121191 -0.06488023 0.0043257745 0.053980894 -0.050201736 0.018584222 0.15489379 0.005285147 -0.18004653 -0.12802616 -0.06185211 0.057405815 -0.02642437 0.067454435 0.16285875 -0.0051083146 0.00047410736 0.11050749 -0.0063417517 0.033931933 0.07043417 -0.0032184287 0.017556306 0.06604786 -0.0147541445 0.029278196 0.057484128 0.09110378 -0.016841501 0.026452724 -0.0954279 -0.01737263 -0.007075701 -0.019999446 -0.012693531 -0.033087768 -0.10381696 0.014879208 -0.08563343 -0.04748768 -0.014709571 -0.07447963 -0.014098382 -0.024461972 -0.02929984 -0.052348655 -0.014224206 0.0027617658 -0.036434833 -0.025541268 -0.01398598 0.005722731 -0.08077446 0.040451065 -0.12271008 0.06151279 0.021712963 -0.0123275705 0.04325542 -0.05971892 -0.041893616 -0.009465996 0.020918058 0.005872394 -0.05841865 -0.009675475 0.0007576697 0.018946318 0.07331239 0.009497039 0.098257795 0.026714724 0.089647375 -0.0018321684 0.005015002 -0.00793096 0.047526352 0.03729125 -0.03948985 0.031767536 0.020464526 0.0032105644 -0.0314856 0.0047483677 -0.07040274 -0.028093353 0.064055234 -0.08252011
oil 0.06035436 -0.0326215 0.07047702 -0.03941315 0.009880548 0.02671851 -0.04746781 0.08747909 0.046505325 0.07259207 0.069976285 -0.01635754 0.010063859 0.059316035 -0.06757344 -0.00015654226 0.012062439 -0.049578555 -0.025481023 0.02149852 -0.015846785 -0.055377394 -0.006822696 -0.100836046 0.014722571 -0.017142033 -0.0061365655 0.019572258 0.008106965 0.0003112779 -0.07345437 -0.012064925 0.09509147 0.016015867 0.019757502 -0.005257878 -0.010363458 -0.032924358 -0.025278943 -0.09345055 0.021674154 -0.010080647 -0.075636946 -0.05373281 0.08606238 0.029472504 0.051508956 -0.067609705 -0.019418703 -0.058464296 -0.014278615 0.040327895 -0.026113259 0.05955007 0.042741656 0.053584706 0.02595596 0.09407768 0.008024237 -0.05772418 0.12265351 0.0073478543 0.073507294 -0.03601225 0.032749537 0.026517902 -0.024849514 0.08411754 -0.02541943 0.05685759 -0.03344086 0.04212596 -0.008015494 0.06668167 0.027361393 0.04952292 -0.008027364 -0.12271467 -0.025189493 3.4690678e-05 -0.043078702 0.032817937 0.059821524 0.073040046 0.12335249 0.024007553 -0.17061378 -0.072575614 -0.032709174 -0.08088654 -0.022676295 -0.024513524 0.024898332 -0.065865904 0.032599278 -0.033529054 0.027207281 0.012987738 -0.114044465 0.07831336 -0.08396218 -0.021346875 -0.0016009572 0.0009532625 0.087579414 -0.05333553 0.16289318 -0.16617122 -0.028190114 0.0856622 0.0035911796 -0.01837256 -0.13905463 0.035482984 -0.028411647 -0.04222814 -0.00472283 -0.0014176057 0.14825666 0.03554135 0.033501394 -0.029038234 -0.008967303 -0.03660052 0.05081966 -0.13211595 -0.00245769 0.15139844 -0.015111621 0.0056181676 0.05395102 0.041121382 0.021314198 -0.008548598 -0.06804707 0.057196543 -0.0141413845 -0.028993411 0.039546177 0.08897175 -0.014232849 0.10533186 -0.03907567 0.0015872692 0.022125736 0.03180201 0.16810827 0.107163794 -0.08157366 0.04019019 -0.012472143 0.046827994 -0.00681077 0.032822825 0.001179948 -0.062101867 -0.0528909 0.03668768 0.01893792 0.019145845 0.038863566 0.052481078 0.05555103 -0.059542034 0.038148187 0.0065260413 0.006496269 -0.06894076 -0.021438297 -0.068481304 0.0066675167 -0.046044987 -0.038691934 -0.022099987 -0.03288689 6.807861e-05 -0.038814653 -0.029370861 0.023179188 0.0370432 -0.020420464 0.051274348 -0.0009636174 0.043247603 -0.07727475 0.06510715 0.049971763 -0.0006742404 -0.04647475 0.022697132 0.06997533 0.047600046 -0.082910135 0.015720088 0.10253291 0.0064805276 0.010353764 -0.0451934 0.052053187 -0.012795134 -0.055365738 -0.007845608 0.0899973 0.025347786 -0.07338948 0.11753156 -0.0069414503 -0.0794254 -0.03976504 -0.07573322 -0.0018478619 0.014867199 0.033028565 0.00022435302 -0.002598201 0.14511204 0.100182205 -0.08589289 -0.016372317 -0.0028065722 0.07621248 0.074425064 0.03221621 0.04325965 -0.019054305 -0.03557934 0.07697051 -0.06157858 0.013598984 -0.05895664 -0.02132872 0.035214987 0.02104852 -0.03416841 0.06503044 0.035156455 0.049311448 -0.024392951 0.052512754 -0.048904527 -0.0007815484 -0.06320357 -0.028796833 0.15681113 -0.105830036 -0.021966703 -0.03620687 -0.038837265 -0.025844106 -0.1105609 -0.055934317 0.011171049 -0.054240152 0.05514705 0.042269994 -0.0033669067 -0.07639337 -0.04453474 0.12006378 0.035512023 0.019351844 0.09882685 0.01884133 -0.011480337 -0.016335446 0.045598052 -0.078193605 -0.049080227 -0.02516354 0.003968512 -0.033386208 -0.040918685 0.04567584 -0.101360686 0.023669263 0.08354763 -0.042331822 0.027934026 -0.08145411 0.10924799 0.0489684 -0.0008473165 -0.0076118144 0.01960941 -0.012295157 0.08736615 0.07142122 0.08971722 -0.06396513 0.011227671 -0.023375785 -0.021595545 -0.0032941361 -0.012785568 0.024784261 -0.038458485 0.15993881 0.029139234 -0.028368076 -0.030782832
